-1.036065891385078430e-01 3.411722183227539062e-02 8.203999698162078857e-02 2.267086133360862732e-02 1.768874004483222961e-02
7.609227299690246582e-01 -1.680843159556388855e-02 8.858024328947067261e-02 -1.117787063121795654e-01 4.306801408529281616e-02
3.986248075962066650e-01 1.800646036863327026e-01 1.185961253941059113e-02 1.295961737632751465e-01 -2.381042949855327606e-02
3.785275220870971680e-01 -8.689671009778976440e-02 4.989663138985633850e-02 -4.364490136504173279e-02 1.657058112323284149e-02
-1.030950844287872314e-01 1.219903826713562012e-01 -3.369196876883506775e-02 -8.814820088446140289e-03 -6.979378871619701385e-03
-1.928516924381256104e-01 -5.856389552354812622e-02 5.056306254118680954e-03 -6.319957785308361053e-03 7.799671497195959091e-03
2.663744091987609863e-01 8.127496391534805298e-02 -2.850138768553733826e-02 1.849301345646381378e-02 7.269299589097499847e-03
1.000601574778556824e-01 -8.644058555364608765e-02 4.547525197267532349e-02 -5.913306400179862976e-02 1.618110574781894684e-02
-6.696577370166778564e-02 -8.396558463573455811e-02 -3.631713613867759705e-02 -4.839318990707397461e-02 -3.032068721950054169e-02
4.351713955402374268e-01 1.474941372871398926e-01 -1.621961407363414764e-02 1.874863635748624802e-03 8.705711923539638519e-03
4.422690868377685547e-01 1.033299639821052551e-01 2.405246719717979431e-03 -2.297178283333778381e-02 2.053668722510337830e-02
4.400986731052398682e-01 8.819488435983657837e-02 -2.191050723195075989e-02 -6.474782712757587433e-04 1.947103068232536316e-02
1.252645850181579590e-01 -8.351722732186317444e-03 8.414603769779205322e-02 -6.228995323181152344e-02 9.335959330201148987e-03
-4.945039153099060059e-01 -1.270555704832077026e-01 -2.636069804430007935e-02 -5.132621526718139648e-02 -1.529185846447944641e-02
6.364105343818664551e-01 1.247612982988357544e-01 1.995461992919445038e-02 3.596301749348640442e-02 1.955629885196685791e-02
5.396575331687927246e-01 1.309601664543151855e-01 -3.585632424801588058e-03 5.045552551746368408e-02 2.524845185689628124e-04
-5.450362563133239746e-01 -1.124039813876152039e-01 -3.157789632678031921e-02 -3.169303387403488159e-02 -1.732894778251647949e-02
4.905555546283721924e-01 -2.028217352926731110e-02 7.709643989801406860e-02 -1.037943363189697266e-01 8.808565326035022736e-03
-2.009532749652862549e-01 4.116861091461032629e-04 3.576213121414184570e-02 -2.955368719995021820e-02 4.239160567522048950e-02
9.550306946039199829e-02 -3.978697955608367920e-02 -5.407414957880973816e-02 8.589489385485649109e-03 2.100970968604087830e-02
7.831832021474838257e-02 -5.793438106775283813e-02 -1.483168452978134155e-03 4.555303975939750671e-02 6.677900999784469604e-02
-4.955612421035766602e-01 -6.209093704819679260e-02 -2.439927496016025543e-02 -4.725657775998115540e-02 -4.556349664926528931e-02
-4.001075625419616699e-01 -2.920417487621307373e-02 -2.660862542688846588e-02 -4.308016225695610046e-02 -5.535101145505905151e-02
2.117377221584320068e-01 5.355413630604743958e-02 7.351144403219223022e-02 -3.508460894227027893e-02 2.266269549727439880e-02
4.668019711971282959e-02 -1.734083890914916992e-02 3.217069432139396667e-02 -3.699956461787223816e-02 -4.752989858388900757e-03
1.815714500844478607e-02 -6.647256016731262207e-02 -2.941005490720272064e-02 -6.160698831081390381e-02 -6.073978170752525330e-02
5.152997970581054688e-01 -7.224525511264801025e-02 2.260029759781900793e-06 -6.852873414754867554e-02 -1.946743763983249664e-02
7.341544032096862793e-01 1.269189566373825073e-01 4.558807238936424255e-02 6.778822839260101318e-02 2.415681257843971252e-02
-9.444392472505569458e-02 -4.111922159790992737e-02 7.640870288014411926e-03 3.107878752052783966e-02 7.303748279809951782e-02
-4.001663029193878174e-01 7.948604971170425415e-02 4.933660104870796204e-02 4.604540392756462097e-02 1.609280891716480255e-02
3.481561243534088135e-01 6.375531852245330811e-02 9.843694046139717102e-03 2.249510213732719421e-02 1.864800229668617249e-02
-2.677488327026367188e-01 7.723307609558105469e-02 -1.161983795464038849e-02 8.021432906389236450e-03 1.736195944249629974e-02
-6.188984513282775879e-01 2.254823455587029457e-03 5.202188156545162201e-03 -1.536088809370994568e-02 1.104727480560541153e-02
7.101371288299560547e-01 8.766315877437591553e-02 4.568804800510406494e-02 8.623003214597702026e-02 1.044762041419744492e-02
-6.437251567840576172e-01 -1.195224300026893616e-01 -6.864823400974273682e-02 -1.184644643217325211e-02 8.212248980998992920e-02
-7.692267894744873047e-01 -1.620578467845916748e-01 -4.620489105582237244e-02 -9.383915923535823822e-03 8.546491712331771851e-02
1.755873858928680420e-01 4.355975240468978882e-02 3.500507399439811707e-02 1.486264821141958237e-02 1.791170984506607056e-02
8.160271495580673218e-02 -7.912875153124332428e-03 2.566990815103054047e-02 -6.789810955524444580e-02 2.448670007288455963e-02
-3.563409149646759033e-01 6.542664766311645508e-02 -2.023653499782085419e-02 1.352932769805192947e-02 1.084316638298332691e-03
7.693105936050415039e-01 6.898890435695648193e-02 3.943000733852386475e-02 1.002357229590415955e-01 2.852754667401313782e-02
1.099860444664955139e-01 -4.061572253704071045e-02 4.858656972646713257e-02 -1.035776287317276001e-01 3.367836773395538330e-02
7.170604169368743896e-02 -5.074879527091979980e-02 4.694816097617149353e-02 -1.008073911070823669e-01 3.797380253672599792e-02
5.727565884590148926e-01 4.901893064379692078e-02 4.368291050195693970e-02 6.643655151128768921e-02 3.557261079549789429e-03
5.998253822326660156e-01 5.432683601975440979e-02 -4.529308527708053589e-02 8.563534170389175415e-02 -7.806254085153341293e-03
6.491781473159790039e-01 4.516589641571044922e-02 -8.629651367664337158e-02 1.140766143798828125e-01 -3.489213809370994568e-02
1.121026754379272461e+00 8.033482730388641357e-02 2.770371921360492706e-02 -1.006948202848434448e-01 9.635768830776214600e-03
5.932905077934265137e-01 7.575108855962753296e-02 -2.638071030378341675e-02 4.856812953948974609e-02 1.302671711891889572e-02
-5.421657562255859375e-01 -6.017631292343139648e-02 -6.013399455696344376e-03 1.702408492565155029e-02 7.370023429393768311e-02
5.974516868591308594e-01 4.312120005488395691e-02 -3.587936982512474060e-02 7.956467568874359131e-02 -3.174527082592248917e-04
-2.966715097427368164e-01 2.134748548269271851e-01 -7.484361529350280762e-02 1.493675410747528076e-01 -5.886244773864746094e-02
-3.984616100788116455e-01 -2.641591727733612061e-01 1.711279712617397308e-02 -3.202644363045692444e-02 -4.361865669488906860e-02
6.956290602684020996e-01 -4.485806450247764587e-02 -8.163774013519287109e-02 -8.461205661296844482e-02 -3.983704000711441040e-02
5.971639156341552734e-01 -8.789244107902050018e-03 3.020351985469460487e-03 2.530561946332454681e-02 -3.456705063581466675e-02
2.971294522285461426e-01 2.306772768497467041e-02 1.115966588258743286e-01 6.210755556821823120e-02 4.989628493785858154e-02
4.180426895618438721e-01 -1.739595234394073486e-01 -3.105221875011920929e-02 -1.443562805652618408e-01 -2.458335645496845245e-02
5.431736111640930176e-01 -4.333905410021543503e-03 -1.364211644977331161e-02 2.934856712818145752e-02 -1.034062262624502182e-02
7.791033983230590820e-01 2.742192521691322327e-02 5.126158357597887516e-04 1.462371349334716797e-01 2.140455134212970734e-02
4.727161228656768799e-01 2.436104230582714081e-02 -3.281981870532035828e-02 5.363763868808746338e-02 2.811242081224918365e-02
5.396500229835510254e-01 -6.319932639598846436e-03 8.140477538108825684e-02 -1.393141150474548340e-01 4.091600421816110611e-03
4.571817219257354736e-01 2.335915714502334595e-02 -1.612471044063568115e-02 -3.052587620913982391e-02 2.058008499443531036e-02
3.710585832595825195e-01 5.799864232540130615e-02 -1.972378604114055634e-02 -6.835160404443740845e-02 8.042230270802974701e-03
-2.310880124568939209e-01 4.417611286044120789e-02 4.082296788692474365e-02 1.538906339555978775e-02 3.580503910779953003e-02
1.097416132688522339e-01 1.065516564995050430e-02 6.577052921056747437e-02 1.685879752039909363e-02 3.857114538550376892e-02
-1.828389018774032593e-01 1.120418384671211243e-01 6.582899950444698334e-03 8.875989168882369995e-02 -6.414196453988552094e-03
-4.642936885356903076e-01 4.166271165013313293e-02 -1.346274837851524353e-02 1.390082575380802155e-02 -3.078515827655792236e-02
-1.851023584604263306e-01 -8.095237612724304199e-02 2.142120152711868286e-02 -1.002233922481536865e-01 4.187592864036560059e-02
-4.050604403018951416e-01 -7.902441918849945068e-02 6.449601054191589355e-02 8.046712726354598999e-03 3.528603166341781616e-02
4.932147264480590820e-01 -1.790480688214302063e-02 1.093851253390312195e-01 -4.714797809720039368e-02 2.581078931689262390e-02
-1.132523640990257263e-01 1.206532195210456848e-01 -2.768839336931705475e-02 6.747835129499435425e-02 -2.162997610867023468e-02
4.839125275611877441e-01 1.965648122131824493e-02 -1.564462855458259583e-02 9.545309841632843018e-02 2.015575580298900604e-02
2.477535009384155273e-01 -3.805483877658843994e-02 6.959522515535354614e-02 -8.935692906379699707e-02 2.746181562542915344e-02
2.488118261098861694e-01 7.849510759115219116e-02 -5.974471569061279297e-02 1.996696740388870239e-02 -1.641714386641979218e-02
2.671152055263519287e-01 8.417361229658126831e-02 -6.111023202538490295e-02 2.556912228465080261e-02 -1.677650026977062225e-02
3.128145337104797363e-01 -4.581022658385336399e-04 4.743009433150291443e-02 -1.113635972142219543e-01 1.483456604182720184e-02
5.533401370048522949e-01 -1.038104668259620667e-01 6.579500436782836914e-02 1.790908724069595337e-01 8.635861799120903015e-03
2.082827538251876831e-01 7.742499560117721558e-02 4.714410379528999329e-02 7.094462215900421143e-02 3.745716065168380737e-03
-3.566058874130249023e-01 1.552638709545135498e-01 -2.306068874895572662e-02 5.351721867918968201e-02 -1.423854939639568329e-02
-1.608948856592178345e-01 6.129004061222076416e-02 -7.485366612672805786e-02 4.288518801331520081e-03 -7.809280417859554291e-03
5.939899682998657227e-01 -3.920064866542816162e-02 1.594163179397583008e-01 7.014865428209304810e-02 -2.285799756646156311e-02
-4.573466181755065918e-01 7.386849075555801392e-02 5.569084361195564270e-02 -1.681995764374732971e-02 3.017270006239414215e-02
-3.112716078758239746e-01 8.307731896638870239e-02 6.896776705980300903e-02 3.479284793138504028e-02 1.533385738730430603e-02
7.948799729347229004e-01 1.971526537090539932e-03 -8.912836201488971710e-03 -3.171002864837646484e-02 -6.540263537317514420e-03
-3.797705769538879395e-01 1.112322881817817688e-01 -2.088119834661483765e-02 1.415110100060701370e-02 2.602902532089501619e-04
-5.136726498603820801e-01 1.487656384706497192e-01 -1.459989417344331741e-02 2.537600882351398468e-02 7.963621465023607016e-05
-1.607916653156280518e-01 -1.270844321697950363e-02 3.572863060981035233e-03 3.357422724366188049e-02 -2.005644328892230988e-02
2.090191990137100220e-01 -1.721774600446224213e-02 -3.358880057930946350e-02 2.285197144374251366e-03 -2.790560945868492126e-02
-4.799087941646575928e-01 -4.025145247578620911e-02 1.771263964474201202e-02 3.503984585404396057e-02 6.633322685956954956e-02
-4.917342662811279297e-01 1.145567297935485840e-01 -2.759617008268833160e-02 3.714544698596000671e-02 4.774264525622129440e-03
-4.909178912639617920e-01 1.123101264238357544e-01 -2.608746290206909180e-02 3.697205707430839539e-02 5.648894235491752625e-03
4.638549089431762695e-01 -5.448616668581962585e-02 1.361835598945617676e-01 6.170152500271797180e-02 2.803871221840381622e-02
3.943585157394409180e-01 -8.983625471591949463e-02 1.172948107123374939e-01 7.439214736223220825e-02 4.214372485876083374e-02
-3.496583104133605957e-01 3.449761867523193359e-02 6.196138914674520493e-03 1.994556933641433716e-02 1.780216954648494720e-02
3.763712644577026367e-01 -4.462932422757148743e-02 1.113436296582221985e-01 6.569665670394897461e-02 3.098378330469131470e-02
5.476725697517395020e-01 -1.783876941772177815e-04 -3.982135280966758728e-02 -3.007229976356029510e-02 7.668545586057007313e-04
2.999233826994895935e-02 -4.292136058211326599e-02 -1.840724982321262360e-02 -7.840214297175407410e-03 -1.369214244186878204e-02
1.287634372711181641e-01 7.834518700838088989e-02 -4.263894632458686829e-02 1.319346949458122253e-02 2.756811678409576416e-03
-4.429649114608764648e-01 6.053886562585830688e-02 -3.620457649230957031e-02 3.769353032112121582e-02 1.666939072310924530e-02
5.677238106727600098e-01 1.684042066335678101e-02 4.065594077110290527e-02 3.091812692582607269e-02 1.772869750857353210e-02
5.332552194595336914e-01 -1.436283718794584274e-02 1.007310375571250916e-01 1.683113910257816315e-02 1.625762786716222763e-03
-3.705216348171234131e-01 4.784255847334861755e-02 -4.569940641522407532e-02 4.361768066883087158e-02 1.738311722874641418e-02
1.118606179952621460e-01 -4.251952841877937317e-02 4.341767728328704834e-02 -2.683627419173717499e-02 1.477143727242946625e-02
-6.974623352289199829e-02 1.725515723228454590e-02 -1.641015149652957916e-02 -2.564983442425727844e-02 -8.580957539379596710e-03
3.723871111869812012e-01 -1.431796699762344360e-02 6.583269685506820679e-02 -3.435197100043296814e-02 3.565994091331958771e-03
-6.006044745445251465e-01 5.490271002054214478e-02 3.066920675337314606e-02 -1.917569525539875031e-02 -3.560666739940643311e-02
5.277791619300842285e-01 -1.571156317368149757e-03 2.762618288397789001e-02 4.022177308797836304e-02 1.135705877095460892e-02
-2.994024753570556641e-01 1.666501462459564209e-01 -5.712121725082397461e-02 5.457447841763496399e-02 -2.850678004324436188e-02
-7.059944272041320801e-01 -1.538683623075485229e-01 2.437580749392509460e-02 -1.834880094975233078e-03 3.674457967281341553e-02
-2.821959257125854492e-01 3.905391693115234375e-02 3.299820050597190857e-02 1.671622321009635925e-02 -5.494511872529983521e-02
9.582317620515823364e-02 -3.518545767292380333e-03 3.899195790290832520e-02 -5.327266175299882889e-03 -5.421761795878410339e-02
-4.456510245800018311e-01 -1.162927076220512390e-01 1.329559925943613052e-02 4.213988035917282104e-02 3.827776759862899780e-02
6.613643169403076172e-01 1.319052069447934628e-03 7.036381866782903671e-03 -1.150459870696067810e-01 2.663398394361138344e-03
4.495387375354766846e-01 -5.767355673015117645e-03 -2.999200485646724701e-02 -7.599240541458129883e-02 -3.993977233767509460e-02
-1.694747060537338257e-01 -2.000227198004722595e-02 4.909247532486915588e-02 -4.153726622462272644e-02 -5.523131415247917175e-02
-5.361490845680236816e-01 6.360208988189697266e-02 -2.154683880507946014e-02 7.009289693087339401e-03 -4.575987905263900757e-02
-5.278171300888061523e-01 4.832346737384796143e-02 -2.716325409710407257e-02 9.415624663233757019e-03 -5.132194980978965759e-02
2.693280577659606934e-01 7.593163102865219116e-02 7.516060024499893188e-02 3.187044709920883179e-02 1.955829001963138580e-02
-6.576322913169860840e-01 -1.031851023435592651e-01 3.941315785050392151e-02 1.645250618457794189e-02 5.067345872521400452e-02
-2.641403973102569580e-01 -2.263433858752250671e-02 -4.975945688784122467e-03 -3.081391938030719757e-02 4.702471569180488586e-02
-5.087094008922576904e-02 -1.348304003477096558e-02 1.117271780967712402e-01 -3.500200062990188599e-02 4.419341310858726501e-02
-9.088733047246932983e-02 1.273109167814254761e-01 2.164175268262624741e-03 -7.484026253223419189e-02 -1.743966341018676758e-02
6.329956650733947754e-02 -2.903570979833602905e-02 -4.113012924790382385e-02 1.137430295348167419e-01 -6.900902371853590012e-03
-1.197632029652595520e-01 -1.493229120969772339e-01 -3.714546561241149902e-02 -1.122747734189033508e-02 3.379564732313156128e-02
-3.853945732116699219e-01 6.821025162935256958e-02 -1.493535470217466354e-02 -4.087613523006439209e-02 3.490089252591133118e-02
-5.377705767750740051e-02 -3.809818252921104431e-02 -2.981725707650184631e-02 1.125350818037986755e-01 3.311593609396368265e-04
2.769200503826141357e-01 8.446845412254333496e-02 1.110636293888092041e-01 4.059354250784963369e-04 2.395297773182392120e-02
-4.852459132671356201e-01 2.262537367641925812e-02 3.153399378061294556e-02 1.191222388297319412e-02 -9.358138591051101685e-02
-2.669120393693447113e-02 -5.765714496374130249e-02 -6.001360714435577393e-02 1.171177700161933899e-01 1.694525778293609619e-02
1.685755848884582520e-01 1.294596344232559204e-01 -2.327382937073707581e-02 2.683491632342338562e-02 -9.384548757225275040e-04
1.629737466573715210e-01 1.212272495031356812e-01 -4.989781975746154785e-02 4.141482524573802948e-03 1.708851661533117294e-03
-5.770975723862648010e-02 -4.027417674660682678e-02 1.450203955173492432e-01 3.966848924756050110e-02 1.383342966437339783e-02
9.575723856687545776e-02 1.073735430836677551e-01 1.992613077163696289e-02 -2.061280049383640289e-02 -8.079214952886104584e-03
-1.861958801746368408e-01 -4.330807924270629883e-02 2.237799763679504395e-02 6.711987406015396118e-02 1.520647015422582626e-02
-6.900175660848617554e-02 -4.267001524567604065e-02 4.705081507563591003e-02 6.956847757101058960e-02 1.856670342385768890e-02
-7.459273934364318848e-02 -3.765707835555076599e-02 3.818020224571228027e-02 6.230850145220756531e-02 1.577065698802471161e-02
-5.620645824819803238e-03 -8.468165993690490723e-02 1.724518719129264355e-03 9.030904620885848999e-02 -1.168343238532543182e-02
-8.098937571048736572e-02 1.017867699265480042e-01 -1.329735107719898224e-02 2.351648174226284027e-02 -3.611567243933677673e-02
1.682951599359512329e-01 6.449010223150253296e-02 -3.856920450925827026e-02 8.271537721157073975e-03 7.365281693637371063e-03
-1.158801317214965820e-01 -4.041624441742897034e-02 -2.024565637111663818e-02 3.185584023594856262e-02 2.924390509724617004e-02
3.806247711181640625e-01 6.758332252502441406e-02 5.587350204586982727e-02 -9.882137179374694824e-03 1.798181794583797455e-02
1.981105208396911621e-01 2.454293891787528992e-02 9.007842838764190674e-02 -2.047649957239627838e-02 -4.460794478654861450e-02
1.044198870658874512e-01 1.019864901900291443e-01 -7.917659357190132141e-03 -2.110658027231693268e-02 -1.030239276587963104e-02
4.537959098815917969e-01 1.597940921783447266e-02 5.537277087569236755e-02 -3.576334938406944275e-02 1.040462520904839039e-03
6.733921915292739868e-02 1.200072467327117920e-01 -6.468173116445541382e-02 -5.084821954369544983e-03 -9.101215749979019165e-03
5.532263591885566711e-02 1.219397559762001038e-01 -6.401219964027404785e-02 -5.741933360695838928e-03 -9.223275817930698395e-03
-5.052789300680160522e-02 1.489942669868469238e-01 -5.267654731869697571e-02 -1.289500668644905090e-02 -1.048428099602460861e-02
5.963275581598281860e-02 1.212642565369606018e-01 -6.540628522634506226e-02 -5.361711606383323669e-03 -9.329472668468952179e-03
-2.846339046955108643e-01 -3.584905713796615601e-02 -3.187412396073341370e-02 -5.436583608388900757e-02 -1.036713551729917526e-02
1.637870967388153076e-01 1.092207655310630798e-01 -1.712071523070335388e-02 -1.835198025219142437e-03 2.064679982140660286e-03
-3.498950302600860596e-01 -1.881868094205856323e-01 -8.054701983928680420e-02 -2.001440618187189102e-03 4.359342157840728760e-02
-9.460887908935546875e-01 -2.309072762727737427e-02 1.367212156765162945e-03 -2.478634193539619446e-02 4.151130467653274536e-02
-2.989598214626312256e-01 -9.265540540218353271e-02 3.426570817828178406e-02 -2.012517675757408142e-02 -2.921114303171634674e-02
-6.093422323465347290e-02 -1.980267465114593506e-01 -7.890243828296661377e-02 -8.159146457910537720e-02 7.393800467252731323e-02
3.612726330757141113e-01 -6.507015973329544067e-02 -4.664520919322967529e-02 -6.937284022569656372e-02 3.242252394556999207e-02
2.056804113090038300e-02 5.597648676484823227e-03 4.193777590990066528e-02 -2.024610713124275208e-02 -7.857400178909301758e-02
-3.691760078072547913e-02 -1.176687180995941162e-01 -5.585931241512298584e-02 -5.171154066920280457e-02 6.476064771413803101e-02
1.208786293864250183e-01 3.654294833540916443e-02 1.886473223567008972e-02 -2.364481426775455475e-02 -3.996102139353752136e-02
4.375084827188402414e-04 -1.025904715061187744e-01 -4.969039186835289001e-02 -4.725283756852149963e-02 6.148777157068252563e-02
-6.218050122261047363e-01 -1.866165548563003540e-02 1.831282675266265869e-02 -6.525662541389465332e-02 -3.261717408895492554e-02
1.121774688363075256e-01 -9.950940497219562531e-03 -1.281084958463907242e-03 -3.825359791517257690e-02 -9.076859802007675171e-02
1.558759212493896484e-01 6.203651800751686096e-02 4.363489523530006409e-02 -2.617315761744976044e-02 -7.022713124752044678e-02
2.354980707168579102e-01 5.777381360530853271e-02 6.628628075122833252e-02 -3.869839757680892944e-02 -7.524257898330688477e-02
-4.656747281551361084e-01 1.630748510360717773e-01 1.202046591788530350e-02 9.341967105865478516e-02 -3.528620302677154541e-02
-3.129682838916778564e-01 5.984647572040557861e-02 -3.887574374675750732e-02 -6.889328360557556152e-02 -5.991719197481870651e-03
-5.606552958488464355e-01 4.102422669529914856e-02 2.455471269786357880e-02 9.189371019601821899e-02 -1.874706894159317017e-02
-8.658985048532485962e-02 -1.253501176834106445e-01 -4.180034250020980835e-02 -2.974024601280689240e-02 5.625595152378082275e-02
-5.205661058425903320e-01 9.538624435663223267e-03 1.789409108459949493e-02 8.833342045545578003e-02 -1.896919868886470795e-02
7.944781333208084106e-02 -7.427736371755599976e-02 2.302446868270635605e-03 -3.345085680484771729e-02 6.321302801370620728e-02
-5.431050062179565430e-01 -1.998276263475418091e-02 8.907319046556949615e-03 9.355378895998001099e-02 -1.635643094778060913e-02
3.810842335224151611e-01 3.433332219719886780e-02 -4.224154632538557053e-03 -3.590634092688560486e-02 1.129625737667083740e-02
-4.414941743016242981e-02 -4.799871519207954407e-02 -4.091534391045570374e-02 -3.558953851461410522e-02 4.008831828832626343e-02
4.989062622189521790e-02 3.124971687793731689e-02 2.531814202666282654e-02 -2.308845147490501404e-02 -5.115323886275291443e-02
1.571988314390182495e-01 -8.408577181398868561e-03 -2.922588214278221130e-02 -3.629223629832267761e-02 -2.308154478669166565e-02
4.377137422561645508e-01 -2.700388804078102112e-02 -1.199107617139816284e-01 1.467420998960733414e-02 -3.352073952555656433e-02
-1.421655863523483276e-01 -2.800422161817550659e-02 2.633991651237010956e-02 -2.992999367415904999e-02 5.244999378919601440e-02
5.166396126151084900e-02 3.876105183735489845e-04 2.692261943593621254e-03 1.083755120635032654e-02 -3.160003200173377991e-02
5.391551852226257324e-01 1.887773536145687103e-02 -5.611817538738250732e-02 1.183333992958068848e-02 -2.574579324573278427e-03
3.227060288190841675e-02 -4.494341835379600525e-02 2.351207099854946136e-02 2.366373501718044281e-02 -2.847567573189735413e-02
8.236364275217056274e-02 -6.117836013436317444e-02 2.126226015388965607e-02 5.248730070888996124e-03 -2.529368363320827484e-02
7.394441217184066772e-02 -4.511376097798347473e-02 3.660908713936805725e-02 1.110360026359558105e-02 -2.756387926638126373e-02
-4.529509842395782471e-01 -8.001112192869186401e-02 -5.988247320055961609e-02 2.350288443267345428e-02 1.698223687708377838e-02
8.976141363382339478e-02 9.081280790269374847e-03 9.491389244794845581e-02 5.059884488582611084e-02 -2.460685186088085175e-02
-1.322120279073715210e-01 4.198396112769842148e-03 -3.548467531800270081e-02 -6.044667959213256836e-02 2.231793664395809174e-02
-1.126505434513092041e-01 -9.696763008832931519e-02 -8.831218630075454712e-02 1.596229965798556805e-03 4.181865230202674866e-02
2.537896335124969482e-01 4.580925032496452332e-02 4.992891103029251099e-02 5.703708156943321228e-02 1.013533305376768112e-02
-5.566706657409667969e-01 -8.680993318557739258e-02 -1.301457919180393219e-02 6.817706674337387085e-02 4.622041247785091400e-03
3.062523603439331055e-01 1.751827746629714966e-01 4.155671969056129456e-02 -3.146151453256607056e-02 -5.293138790875673294e-03
3.436937928199768066e-01 3.976784273982048035e-02 8.837897330522537231e-02 -2.000801265239715576e-02 -3.030418045818805695e-02
-1.979533135890960693e-01 5.466434359550476074e-02 7.777185738086700439e-02 -3.671967983245849609e-02 -5.042691156268119812e-02
-3.496940433979034424e-01 2.803050912916660309e-02 1.560680917464196682e-03 -1.384574454277753830e-02 -1.068664807826280594e-02
-3.986327052116394043e-01 -2.786418423056602478e-02 -3.656940301880240440e-03 9.250834584236145020e-02 1.551079098135232925e-03
1.583025157451629639e-01 3.313542529940605164e-02 1.909782290458679199e-01 -5.223843455314636230e-02 -3.563410416245460510e-02
-1.279303580522537231e-01 1.114490721374750137e-02 1.076782047748565674e-01 -2.326310425996780396e-02 -2.905086800456047058e-02
-4.015564322471618652e-01 -1.267600953578948975e-01 -5.295495316386222839e-02 -1.107193995267152786e-02 2.718425355851650238e-02
-1.814027130603790283e-01 6.954741198569536209e-03 6.333968043327331543e-02 -7.843604683876037598e-02 -3.913970664143562317e-02
3.297771513462066650e-01 1.758549809455871582e-01 -1.255750469863414764e-02 -1.462482905481010675e-04 -6.146102026104927063e-02
2.736977338790893555e-01 -1.255374997854232788e-01 -6.370449811220169067e-02 -2.651426009833812714e-02 -3.425278468057513237e-03
2.070757150650024414e-01 1.309123784303665161e-01 -3.535216301679611206e-02 -2.026040665805339813e-02 -5.954060330986976624e-02
2.114036530256271362e-01 9.764130413532257080e-02 -4.865891113877296448e-02 -6.952870637178421021e-02 -6.315868347883224487e-02
1.905650049448013306e-01 -5.090731009840965271e-02 1.347636282444000244e-01 -2.895069308578968048e-02 -9.090299159288406372e-02
3.715517818927764893e-01 1.090249195694923401e-01 -4.435475915670394897e-02 -9.964999556541442871e-02 -1.061609713360667229e-03
5.361137390136718750e-01 1.482200995087623596e-02 -5.763759836554527283e-02 -4.578002914786338806e-02 7.352405693382024765e-03
-3.213658556342124939e-02 2.178390882909297943e-02 -1.663414202630519867e-02 -1.158589031547307968e-02 1.260768156498670578e-02
5.398483872413635254e-01 1.482228375971317291e-02 -5.822111666202545166e-02 -4.781797528266906738e-02 7.238724734634160995e-03
1.178659051656723022e-01 -6.350229680538177490e-02 1.621344387531280518e-01 8.259287104010581970e-03 -9.814418852329254150e-02
-4.451980888843536377e-01 9.521123953163623810e-03 -1.641839742660522461e-02 1.286595761775970459e-01 -6.812886148691177368e-02
-9.683749079704284668e-02 2.943588979542255402e-02 -2.516142465174198151e-02 1.633443683385848999e-01 -6.833535432815551758e-02
4.962157309055328369e-01 -2.506734058260917664e-02 5.539653077721595764e-02 -2.537103556096553802e-02 -6.295595318078994751e-02
-6.714194081723690033e-03 -1.691845059394836426e-01 1.145723685622215271e-01 -3.225771477445960045e-03 8.491901308298110962e-02
-1.766857951879501343e-01 -1.142959967255592346e-01 -6.702679395675659180e-02 2.482738718390464783e-02 5.501517653465270996e-02
-4.648005068302154541e-01 5.440959706902503967e-03 -3.729673847556114197e-02 1.330146640539169312e-01 -6.622873991727828979e-02
-2.013316452503204346e-01 4.809654131531715393e-02 -5.264285206794738770e-02 1.396629959344863892e-01 -6.125309318304061890e-02
5.368355512619018555e-01 2.816775999963283539e-02 -1.447146683931350708e-01 -2.416852302849292755e-02 3.407036652788519859e-03
1.152295395731925964e-01 -8.215484023094177246e-02 5.939196795225143433e-02 -1.651927269995212555e-02 3.963492065668106079e-02
3.324731886386871338e-01 8.535181172192096710e-03 1.435400824993848801e-02 2.582650072872638702e-02 -6.205319985747337341e-02
-3.277652263641357422e-01 2.625781670212745667e-02 -3.987505286931991577e-02 1.504125893115997314e-01 -3.063242882490158081e-02
2.756308317184448242e-01 1.028828881680965424e-02 7.074172049760818481e-02 1.014434546232223511e-02 2.263591997325420380e-02
-4.974747598171234131e-01 -9.367940574884414673e-02 -3.801357373595237732e-02 1.297991871833801270e-01 -7.735239714384078979e-02
4.961977601051330566e-01 3.932709619402885437e-02 1.020393371582031250e-01 -7.368592917919158936e-02 9.839349426329135895e-03
1.320192962884902954e-01 2.096600458025932312e-02 5.752106010913848877e-02 1.575764268636703491e-02 -5.246636271476745605e-02
-5.953791737556457520e-01 -8.318287879228591919e-02 -8.496984094381332397e-02 1.055018305778503418e-01 -1.066812779754400253e-02
-3.631700575351715088e-02 7.919517904520034790e-02 6.376672536134719849e-02 3.365738317370414734e-02 -4.861841723322868347e-02
3.010268807411193848e-01 2.883689478039741516e-02 4.152246564626693726e-02 3.104289062321186066e-02 2.682477794587612152e-02
-1.681707650423049927e-01 5.347227305173873901e-02 2.193400077521800995e-02 -4.613675177097320557e-02 -2.939886040985584259e-02
-1.163124665617942810e-01 -1.869630301371216774e-03 1.136972978711128235e-01 4.023290798068046570e-02 -1.057167947292327881e-01
-2.353545725345611572e-01 4.263925924897193909e-02 1.130985096096992493e-01 5.175086483359336853e-02 -8.111182600259780884e-02
-6.781280785799026489e-02 2.418437041342258453e-03 1.401915997266769409e-01 3.978949040174484253e-02 -9.671062231063842773e-02
6.610032916069030762e-01 1.983941160142421722e-02 -2.735101990401744843e-02 -7.992861419916152954e-02 -2.785157226026058197e-02
7.038384675979614258e-02 -1.424939604476094246e-03 1.884963661432266235e-01 4.545567184686660767e-02 -7.718781381845474243e-02
-5.277210101485252380e-02 5.075847357511520386e-02 4.624550044536590576e-02 -7.191745191812515259e-02 1.366869080811738968e-02
3.361586034297943115e-01 2.106315828859806061e-02 1.129316836595535278e-01 7.770042121410369873e-02 2.470229379832744598e-02
1.321285963058471680e-01 -6.108490750193595886e-02 -3.348772972822189331e-02 -8.557673543691635132e-02 3.800302371382713318e-02
-4.052207246422767639e-02 -2.047335729002952576e-02 4.560708254575729370e-02 4.768963903188705444e-02 4.109865054488182068e-02
-7.268313169479370117e-01 1.519204676151275635e-01 1.154074911028146744e-02 8.754461258649826050e-02 3.236852958798408508e-02
1.484397891908884048e-02 -1.382968723773956299e-01 -1.000940352678298950e-01 3.234171867370605469e-02 -6.301005184650421143e-02
-3.546715378761291504e-01 9.116055816411972046e-02 6.252874433994293213e-02 9.951326251029968262e-02 -4.007912054657936096e-02
4.468213617801666260e-01 -4.353642463684082031e-02 9.911840781569480896e-03 -1.014335528016090393e-01 5.566347390413284302e-02
2.864994108676910400e-02 5.233480595052242279e-03 -5.017609149217605591e-02 7.802855223417282104e-02 -3.692701458930969238e-02
1.160314157605171204e-01 -3.626972809433937073e-02 -8.885005116462707520e-02 1.153755262494087219e-01 -1.739636063575744629e-02
3.980840146541595459e-01 -1.250296831130981445e-01 1.470791548490524292e-01 -3.161237761378288269e-02 6.141843646764755249e-02
-4.595811963081359863e-01 2.522073499858379364e-02 -1.858062669634819031e-02 3.877599909901618958e-02 -3.323537483811378479e-02
4.647933691740036011e-02 -7.012126594781875610e-02 -8.892472088336944580e-02 8.151675760746002197e-02 -9.907314181327819824e-02
4.715936779975891113e-01 -7.446876913309097290e-02 -2.348982542753219604e-02 -1.125075593590736389e-01 5.271863937377929688e-02
-5.983101576566696167e-02 2.333865873515605927e-02 -5.204493552446365356e-02 8.011364936828613281e-02 -7.509636878967285156e-02
-4.934235513210296631e-01 -5.157169327139854431e-02 3.204344247933477163e-04 -1.478894613683223724e-03 5.228339135646820068e-02
5.661100149154663086e-01 8.760248310863971710e-03 1.860739849507808685e-02 9.736471809446811676e-03 1.990188844501972198e-02
-4.690365120768547058e-02 1.134428530931472778e-01 4.271653667092323303e-02 3.646664321422576904e-02 4.493991378694772720e-03
-1.831337809562683105e-01 1.293990295380353928e-02 -1.079908087849617004e-01 -9.543203562498092651e-02 -3.050631657242774963e-02
-3.044735640287399292e-02 2.827665535733103752e-03 -4.742882400751113892e-02 -1.763353794813156128e-01 -1.205630879849195480e-02
-1.345285400748252869e-02 3.909043967723846436e-02 1.025762259960174561e-01 3.611379116773605347e-02 -2.511237189173698425e-02
4.182412922382354736e-01 5.414770916104316711e-03 -8.481778949499130249e-02 3.934210166335105896e-02 -9.171057492494583130e-03
-3.963461816310882568e-01 -1.293780058622360229e-01 2.964991703629493713e-02 3.475853055715560913e-02 8.812420815229415894e-02
-2.541283071041107178e-01 -1.714045256376266479e-01 2.148172631859779358e-02 -1.048233825713396072e-02 -6.623796373605728149e-02
-2.642499804496765137e-01 1.010203137993812561e-01 -8.017470687627792358e-02 3.178850561380386353e-02 -9.718931280076503754e-03
1.501079350709915161e-01 9.448355436325073242e-02 -2.388897817581892014e-03 -3.090721555054187775e-02 4.432705417275428772e-02
6.669861078262329102e-02 -2.925963699817657471e-02 5.496807768940925598e-02 6.563936918973922729e-02 -8.464499562978744507e-02
1.197039783000946045e-01 -5.790588259696960449e-02 -3.920064494013786316e-02 -9.876119345426559448e-02 -3.681916370987892151e-02
7.125083208084106445e-01 1.572861452586948872e-03 1.574687361717224121e-01 1.166085153818130493e-01 2.017867192625999451e-02
6.785755157470703125e-01 5.098464339971542358e-02 8.689372986555099487e-02 -3.836173564195632935e-03 8.962032385170459747e-03
-3.731211125850677490e-01 1.397067159414291382e-01 -2.983870729804039001e-02 3.409925149753689766e-03 -6.848209304735064507e-04
-1.104885786771774292e-01 -1.715779602527618408e-01 -6.307926028966903687e-02 -4.862665198743343353e-03 -6.242847815155982971e-02
6.892633438110351562e-02 -3.391006588935852051e-02 -8.608993887901306152e-02 7.994472049176692963e-03 -3.917653858661651611e-02
6.561841964721679688e-01 8.422104269266128540e-02 2.192671783268451691e-02 -7.990121841430664062e-03 1.460153236985206604e-02
5.455078482627868652e-01 1.550885289907455444e-01 4.407419636845588684e-02 -4.694584757089614868e-02 3.689247369766235352e-02
1.075801730155944824e+00 -1.873183622956275940e-02 -1.476443838328123093e-02 -1.188164055347442627e-01 3.959068655967712402e-02
4.097869098186492920e-01 1.052183061838150024e-01 1.744742877781391144e-02 -3.550864383578300476e-02 6.187633052468299866e-02
9.945423603057861328e-01 -2.164320461452007294e-02 7.982122711837291718e-03 -9.303610771894454956e-02 4.985700547695159912e-02
1.141054868698120117e+00 -1.672164350748062134e-02 1.960711320862174034e-03 -1.408372968435287476e-01 3.689605370163917542e-02
-2.862136960029602051e-01 1.340070217847824097e-01 4.844059050083160400e-02 1.083101406693458557e-01 1.792978122830390930e-02
-8.676011562347412109e-01 -1.267418414354324341e-01 7.368754595518112183e-02 4.457951523363590240e-03 7.140825688838958740e-02
1.267286539077758789e+00 -2.636581100523471832e-02 3.847954049706459045e-02 -1.573091298341751099e-01 3.442994505167007446e-02
9.531767964363098145e-01 -7.332359440624713898e-03 -5.891809985041618347e-02 -1.413990259170532227e-01 -1.279985904693603516e-02
4.522902667522430420e-01 -7.004413753747940063e-03 -7.036643475294113159e-02 9.019318968057632446e-04 2.922538481652736664e-02
1.438999176025390625e+00 6.501772254705429077e-02 6.182839721441268921e-02 1.183185279369354248e-01 -6.315323989838361740e-03
-1.885390877723693848e+00 -9.637631475925445557e-02 2.888623066246509552e-02 1.968504860997200012e-02 7.656826637685298920e-03
1.085084676742553711e+00 -8.298457600176334381e-03 4.709708690643310547e-02 1.348322331905364990e-01 -5.864145606756210327e-02
9.200760722160339355e-01 3.216266632080078125e-02 -1.014930829405784607e-01 -1.725483834743499756e-01 4.543866962194442749e-03
-2.039860248565673828e+00 -2.631315402686595917e-02 -3.980920091271400452e-02 3.422766923904418945e-02 1.723129302263259888e-02
1.132125258445739746e+00 1.448840554803609848e-02 -8.648835867643356323e-02 -1.984584331512451172e-01 1.518912706524133682e-02
-1.842970132827758789e+00 5.121835507452487946e-03 -1.648621750064194202e-03 2.004555240273475647e-02 6.045416928827762604e-03
9.490017294883728027e-01 1.640238612890243530e-02 -6.577630341053009033e-02 -1.069479510188102722e-01 1.795629598200321198e-02
-6.991374772042036057e-03 9.591038338840007782e-03 4.210192710161209106e-02 -6.667058169841766357e-02 2.119673602283000946e-02
-9.332368522882461548e-02 -1.893551461398601532e-02 2.541033551096916199e-02 -6.231208890676498413e-02 2.501448057591915131e-02
1.936586499214172363e+00 5.102922767400741577e-02 -1.253186631947755814e-02 2.133314032107591629e-03 -8.063113316893577576e-03
-2.196686267852783203e+00 -6.380134820938110352e-02 1.013886276632547379e-02 -1.712659001350402832e-02 -5.205432884395122528e-03
8.769374489784240723e-01 -3.436534851789474487e-02 1.719623506069183350e-01 3.002790361642837524e-02 3.570441156625747681e-02
-2.218931674957275391e+00 -2.585644833743572235e-02 2.041791798546910286e-03 6.577149499207735062e-03 4.459438845515251160e-03
-2.195004701614379883e+00 -4.516351222991943359e-02 1.445288117974996567e-02 -9.084583260118961334e-03 -9.379925206303596497e-03
-2.176353454589843750e+00 -3.103058971464633942e-02 -5.589191336184740067e-03 -7.219395600259304047e-03 2.015557885169982910e-02
-2.184884071350097656e+00 -6.183636933565139771e-02 3.054578974843025208e-02 -1.710183359682559967e-02 -3.969946410506963730e-03
-2.157972335815429688e+00 -5.873747169971466064e-02 2.077943272888660431e-02 -8.680062368512153625e-03 -1.115972269326448441e-02
-6.483649015426635742e-01 8.727404475212097168e-02 1.896814443171024323e-02 -1.669818162918090820e-02 2.537855412811040878e-03
1.905960202217102051e+00 2.529711835086345673e-02 2.499251812696456909e-02 3.089952096343040466e-02 3.034289740025997162e-02
1.416428685188293457e+00 2.424309030175209045e-02 2.873452752828598022e-02 1.654507815837860107e-01 -9.431137703359127045e-03
2.091732263565063477e+00 3.353894874453544617e-02 -6.223403662443161011e-02 -4.157931357622146606e-02 -1.083913230104371905e-04
-6.793918013572692871e-01 1.916340291500091553e-01 2.418619580566883087e-03 7.116301357746124268e-02 -3.748160321265459061e-03
1.766466259956359863e+00 4.017769917845726013e-02 -1.375865284353494644e-02 7.880502194166183472e-02 -2.788385003805160522e-02
2.137562513351440430e+00 2.062292397022247314e-02 1.366707496345043182e-02 -6.827288307249546051e-03 9.679323062300682068e-03
-2.173372030258178711e+00 -4.657441750168800354e-02 -7.008209358900785446e-03 2.158948918804526329e-03 9.921821765601634979e-03
-5.298832058906555176e-01 -1.855652779340744019e-01 -5.454239621758460999e-02 2.900548279285430908e-02 6.480725109577178955e-02
-2.137443542480468750e+00 -6.592063605785369873e-02 1.281592156738042831e-02 -1.945687271654605865e-02 3.786036977544426918e-03
9.897534847259521484e-01 7.046179845929145813e-03 -3.283441439270973206e-02 -1.832017749547958374e-01 3.488473221659660339e-02
9.276816844940185547e-01 2.356729097664356232e-02 -8.650342375040054321e-02 -1.599132567644119263e-01 3.005030006170272827e-02
1.736021488904953003e-01 -4.754878953099250793e-02 4.092392325401306152e-02 6.686592102050781250e-02 9.616212337277829647e-04
9.660885930061340332e-01 3.793292492628097534e-02 8.728798478841781616e-03 6.074254587292671204e-02 -6.229522824287414551e-02
-2.152807712554931641e+00 -3.863324597477912903e-02 6.046582013368606567e-03 -3.971692640334367752e-03 -3.090724349021911621e-03
1.503115892410278320e+00 4.605832323431968689e-02 4.208856448531150818e-02 1.352108716964721680e-01 -1.191909797489643097e-02
5.564598441123962402e-01 2.698152139782905579e-02 -9.324809908866882324e-02 -2.405277825891971588e-02 2.868556976318359375e-02
-2.148967266082763672e+00 8.205581456422805786e-03 -1.161614246666431427e-02 1.508260611444711685e-03 5.971528589725494385e-02
-2.135679006576538086e+00 -2.183867432177066803e-02 -2.741424739360809326e-02 1.431866176426410675e-02 2.898223698139190674e-02
-2.198845148086547852e+00 -2.604228444397449493e-02 -9.531014598906040192e-03 7.964967750012874603e-03 2.248921059072017670e-02
-2.222874164581298828e+00 -3.935290127992630005e-02 -4.407709639053791761e-04 -9.786787442862987518e-03 1.731817424297332764e-02
9.200392365455627441e-01 -1.441984996199607849e-02 1.669700592756271362e-01 1.117839962244033813e-01 4.767736792564392090e-02
-2.210124492645263672e+00 -7.497970759868621826e-02 2.073062397539615631e-02 -3.124100342392921448e-02 4.520339425653219223e-03
-2.172381639480590820e+00 -4.617381095886230469e-02 4.757991991937160492e-03 -2.402504719793796539e-02 7.307420484721660614e-03
4.177199900150299072e-01 -4.327803105115890503e-02 -1.813102513551712036e-02 2.390533126890659332e-02 -1.452721934765577316e-02
-5.956593751907348633e-01 2.558130770921707153e-02 -8.967170491814613342e-03 8.843593299388885498e-03 2.818443626165390015e-02
9.198514223098754883e-01 -1.185033377259969711e-02 1.248366460204124451e-01 6.518977135419845581e-02 4.381334781646728516e-02
9.003325104713439941e-01 9.371082298457622528e-03 -6.776479631662368774e-02 -1.695363372564315796e-01 3.312538564205169678e-02
8.827396631240844727e-01 -4.779101349413394928e-03 -6.718322634696960449e-02 -1.602037250995635986e-01 2.273548580706119537e-02
-2.198535203933715820e+00 -6.737373769283294678e-02 1.156872976571321487e-02 -3.118226677179336548e-02 1.434693858027458191e-02
-2.227854728698730469e+00 -2.876329794526100159e-02 6.219296716153621674e-03 -2.266405150294303894e-03 5.604620557278394699e-03
-2.085808992385864258e+00 -4.713986814022064209e-02 1.095882058143615723e-02 -2.133690752089023590e-02 2.003961801528930664e-02
1.483891308307647705e-01 -1.707887090742588043e-02 1.591042280197143555e-01 5.942266061902046204e-02 -3.989751636981964111e-02
-1.227315794676542282e-02 -8.756183832883834839e-02 -1.192758455872535706e-01 -1.077745780348777771e-01 7.515205442905426025e-02
1.628939062356948853e-01 -2.068133503198623657e-01 -7.312554121017456055e-02 -1.286015063524246216e-01 9.774509072303771973e-02
1.730037480592727661e-01 -2.022390067577362061e-01 -6.495107710361480713e-02 -1.195469871163368225e-01 9.535568207502365112e-02
2.573128938674926758e-01 -1.370054036378860474e-01 2.124517112970352173e-01 5.634167790412902832e-02 -4.558230750262737274e-03
2.394188046455383301e-01 -1.447012126445770264e-01 2.137466371059417725e-01 5.435587838292121887e-02 -6.539695430546998978e-03
1.767726689577102661e-01 -1.724778115749359131e-01 -1.018972396850585938e-01 -1.362381875514984131e-01 9.414000809192657471e-02
5.722880363464355469e-01 -8.664567023515701294e-02 -2.488970384001731873e-02 -1.448803246021270752e-01 1.037960313260555267e-02
3.552516996860504150e-01 -7.875791192054748535e-02 1.695258915424346924e-01 6.204502284526824951e-02 -1.825563237071037292e-02
-1.066812992095947266e+00 4.047780111432075500e-02 2.168793417513370514e-02 -2.090520597994327545e-02 2.744850516319274902e-02
-1.072377681732177734e+00 3.670537471771240234e-02 2.090793289244174957e-02 -2.071458660066127777e-02 2.834680862724781036e-02
9.254354834556579590e-01 1.017897948622703552e-02 -6.426870822906494141e-02 -1.853397339582443237e-01 4.172245785593986511e-02
-1.912889122962951660e+00 -7.362648844718933105e-02 2.009266242384910583e-02 -3.070447593927383423e-02 2.269107662141323090e-02
9.682749509811401367e-01 1.153036113828420639e-02 -8.533118665218353271e-02 -1.882209777832031250e-01 3.306603059172630310e-02
-2.082670450210571289e+00 -3.277673944830894470e-02 2.701310627162456512e-02 -2.411870844662189484e-02 -9.912969544529914856e-03
-2.088854789733886719e+00 -4.477413371205329895e-02 2.673965878784656525e-02 -2.488499321043491364e-02 -1.415797695517539978e-02
-2.191051483154296875e+00 -3.380604460835456848e-02 1.561775244772434235e-02 -1.226857025176286697e-02 -9.351553395390510559e-03
-2.203154802322387695e+00 -7.305398583412170410e-02 1.226097997277975082e-02 -1.654365845024585724e-02 -2.027312002610415220e-04
1.015510320663452148e+00 1.637786813080310822e-02 -7.831732928752899170e-02 -1.990937441587448120e-01 1.981041580438613892e-02
-2.330304533243179321e-01 1.450768206268548965e-03 -6.282918155193328857e-02 9.236998856067657471e-02 -6.516905874013900757e-02
2.158456087112426758e+00 4.425468668341636658e-02 1.864399382611736655e-05 4.524123389273881912e-03 5.961716640740633011e-03
2.139283657073974609e+00 2.789666876196861267e-02 -5.333194276317954063e-04 7.970879785716533661e-03 -9.122941992245614529e-04
-2.168634653091430664e+00 -4.506225511431694031e-02 3.390831407159566879e-03 -2.584047615528106689e-02 2.728365594521164894e-03
2.162185430526733398e+00 3.447929024696350098e-02 1.616064226254820824e-03 1.881647156551480293e-03 1.232815091498196125e-03
1.121072769165039062e+00 5.080723669379949570e-03 3.782819956541061401e-02 -3.465510904788970947e-02 2.984475158154964447e-02
9.906499981880187988e-01 2.708237804472446442e-02 -1.553171724081039429e-01 -1.909411251544952393e-01 3.811166435480117798e-02
9.538052678108215332e-01 2.234431914985179901e-02 -1.285384446382522583e-01 -1.924221068620681763e-01 3.608463332056999207e-02
8.734970092773437500e-01 -1.394991995766758919e-03 9.325370937585830688e-02 1.194469779729843140e-01 5.363211408257484436e-02
-2.175723314285278320e+00 -5.308575928211212158e-02 1.377318426966667175e-02 -1.662003458477556705e-03 -8.503755554556846619e-03
-9.898617267608642578e-01 8.177994936704635620e-02 4.133770987391471863e-02 -4.287822172045707703e-02 -2.462926134467124939e-02
-5.189924836158752441e-01 1.408808678388595581e-01 -1.163775660097599030e-02 3.924031928181648254e-02 -2.691094297915697098e-03
-2.202378511428833008e+00 -6.933366507291793823e-02 1.215633004903793335e-02 -1.960140280425548553e-02 -1.486096531152725220e-02
8.594616055488586426e-01 5.609514936804771423e-02 -9.319160878658294678e-02 7.818915694952011108e-02 -3.185909986495971680e-02
-2.223211765289306641e+00 -6.307671219110488892e-02 4.892678931355476379e-03 -1.919716829434037209e-03 -3.864179365336894989e-03
-2.225746631622314453e+00 -6.797678023576736450e-02 6.402524188160896301e-03 -6.625067908316850662e-03 -4.759363830089569092e-03
-2.202855587005615234e+00 -8.882597833871841431e-02 2.044908329844474792e-02 -2.802537195384502411e-02 2.126123057678341866e-03
9.898885488510131836e-01 5.911466106772422791e-02 -3.142909705638885498e-02 4.224621132016181946e-02 -3.395592048764228821e-02
2.148511171340942383e+00 3.384978324174880981e-02 -3.559855278581380844e-03 1.020123343914747238e-02 3.821517573669552803e-03
-2.194172859191894531e+00 -6.718917936086654663e-02 1.265831664204597473e-02 -2.978012152016162872e-02 -4.572378937155008316e-03
-2.229392290115356445e+00 -1.729188673198223114e-02 -8.682553656399250031e-03 -1.619665510952472687e-02 4.501286521553993225e-02
-6.464676856994628906e-01 -2.371059730648994446e-02 -2.244988083839416504e-02 3.242566064000129700e-02 5.124007165431976318e-02
2.012946605682373047e+00 3.542093932628631592e-02 1.097245700657367706e-02 -2.150520868599414825e-02 6.417217664420604706e-03
-2.151111602783203125e+00 -2.310522645711898804e-02 -9.954788722097873688e-03 -2.216739952564239502e-02 4.488511756062507629e-02
1.500788450241088867e+00 5.012697726488113403e-02 2.100036107003688812e-02 1.907797157764434814e-01 -2.129073813557624817e-02
9.453576207160949707e-01 1.931176334619522095e-02 -8.436058461666107178e-02 -1.293379366397857666e-01 1.892510056495666504e-02
9.630246758460998535e-01 1.035329047590494156e-02 -6.283527612686157227e-02 -1.754806488752365112e-01 2.627658843994140625e-02
1.411558091640472412e-01 -6.061143800616264343e-02 -2.958967536687850952e-02 -4.987168125808238983e-03 5.961444228887557983e-02
-5.112679004669189453e-01 -4.517137631773948669e-02 -2.864450775086879730e-02 5.434646457433700562e-02 -1.350016798824071884e-02
1.841416060924530029e-01 6.094297021627426147e-02 6.788874976336956024e-03 3.865930065512657166e-02 -8.802501484751701355e-03
1.534053087234497070e-01 -2.595514059066772461e-02 -1.294247899204492569e-02 3.144275769591331482e-02 -1.885611936450004578e-02
3.388355672359466553e-01 1.153066009283065796e-02 -9.179467707872390747e-02 -1.776506565511226654e-02 -3.387449681758880615e-02
-4.085631668567657471e-01 2.843870408833026886e-02 1.615757495164871216e-02 -3.947509080171585083e-02 1.537881139665842056e-02
1.685912370681762695e+00 7.429998368024826050e-03 9.966584853827953339e-03 8.926241099834442139e-02 -2.107717096805572510e-02
2.416192889213562012e-01 4.446659237146377563e-02 -1.234265044331550598e-01 3.690660372376441956e-02 -3.179851546883583069e-02
2.248087823390960693e-01 7.386460900306701660e-03 -1.046393364667892456e-01 1.563498936593532562e-02 -1.717175473459064960e-04
2.400105595588684082e-01 6.958716362714767456e-02 -1.013102382421493530e-01 -1.686816848814487457e-02 -1.895283721387386322e-02
-1.655130743980407715e+00 1.629930362105369568e-02 2.123571000993251801e-02 -6.168016232550144196e-03 -4.911074042320251465e-02
-2.136546373367309570e+00 -6.326202303171157837e-02 1.028188387863337994e-03 -2.509547024965286255e-02 3.698819875717163086e-02
-1.284287869930267334e-01 -4.103406891226768494e-02 5.090277176350355148e-03 -6.713618338108062744e-02 1.591542735695838928e-02
-2.221324920654296875e+00 -6.673774868249893188e-02 1.319995149970054626e-03 -2.544558607041835785e-03 -3.788797883316874504e-03
8.995918035507202148e-01 2.869579754769802094e-02 -1.027635857462882996e-01 7.055453956127166748e-02 -5.964246019721031189e-02
8.853309750556945801e-01 3.585301339626312256e-02 -1.230316013097763062e-01 9.501145780086517334e-02 -6.053165346384048462e-02
9.088564515113830566e-01 3.260705620050430298e-02 -9.287606179714202881e-02 9.860549122095108032e-02 -5.643204227089881897e-02
9.728146791458129883e-01 3.687115013599395752e-02 -8.186877518892288208e-02 9.282173961400985718e-02 -5.232037231326103210e-02
-2.230027437210083008e+00 -2.090469561517238617e-02 6.722744554281234741e-03 -2.163889119401574135e-03 -6.432504858821630478e-03
-2.204728841781616211e+00 1.237329095602035522e-02 -1.989683695137500763e-02 3.959686961024999619e-03 5.457069352269172668e-02
1.094995498657226562e+00 -1.284983195364475250e-02 1.083807051181793213e-01 -8.855580538511276245e-02 3.573906049132347107e-02
-2.218845605850219727e+00 -5.718050524592399597e-02 4.478204529732465744e-03 -8.602993562817573547e-03 3.040426527149975300e-04
-2.215471506118774414e+00 -3.416536003351211548e-02 1.331638661213219166e-03 -1.347686746157705784e-03 1.011852640658617020e-02
-2.224422931671142578e+00 -4.258679971098899841e-02 2.467864891514182091e-03 -5.633188411593437195e-04 -6.271273014135658741e-04
7.790428400039672852e-01 1.150524709373712540e-02 3.168230131268501282e-02 4.136370494961738586e-02 5.273148044943809509e-02
5.437871813774108887e-01 2.345629222691059113e-02 -9.617256373167037964e-02 1.727845706045627594e-02 3.056266345083713531e-02
1.509275317192077637e+00 5.247235670685768127e-02 6.594145298004150391e-02 1.411475837230682373e-01 -4.489964339882135391e-03
1.481971740722656250e+00 5.452084913849830627e-02 5.421818047761917114e-02 1.474213600158691406e-01 -5.328864790499210358e-03
1.463384389877319336e+00 3.719026595354080200e-02 9.148179739713668823e-02 1.240378245711326599e-01 3.770342329517006874e-03
7.959168553352355957e-01 6.369113922119140625e-02 -2.810897678136825562e-02 1.360110789537429810e-01 -7.643809914588928223e-02
-2.203609228134155273e+00 -5.717502906918525696e-02 5.985142663121223450e-03 -1.831906288862228394e-02 1.674908399581909180e-02
-2.178536891937255859e+00 -2.825161069631576538e-02 -1.688151992857456207e-02 -4.356131466920487583e-05 3.530381247401237488e-02
-2.190956354141235352e+00 -6.277124583721160889e-02 1.610872894525527954e-02 -2.480517141520977020e-02 -2.419548807665705681e-03
1.482663989067077637e+00 2.849244885146617889e-02 5.002831295132637024e-02 1.632839888334274292e-01 -2.312952466309070587e-02
-2.208315134048461914e+00 -5.451160296797752380e-02 1.619820110499858856e-02 -3.097921796143054962e-02 9.712913073599338531e-03
8.525788187980651855e-01 1.026393026113510132e-01 -1.676570028066635132e-01 1.748492866754531860e-01 -4.842345416545867920e-02
7.162147760391235352e-01 -4.349133744835853577e-02 2.216991931200027466e-01 1.334179639816284180e-01 -3.019910072907805443e-03
6.110656857490539551e-01 3.870260342955589294e-02 -1.479608565568923950e-01 6.782916188240051270e-02 1.000629644840955734e-02
-2.227037429809570312e+00 -2.906822413206100464e-02 4.313685465604066849e-03 -1.396340224891901016e-02 1.736440137028694153e-02
5.485377311706542969e-01 9.797148406505584717e-03 -5.421203002333641052e-02 -3.403594717383384705e-02 1.649054139852523804e-02
6.959552764892578125e-01 -6.889479700475931168e-03 4.783818498253822327e-02 -1.446766257286071777e-01 2.045257575809955597e-02
-2.476242929697036743e-01 1.339551657438278198e-01 1.406312827020883560e-02 7.038400322198867798e-02 -1.238062325865030289e-02
-2.569674253463745117e-01 1.324764043092727661e-01 2.917654067277908325e-02 6.662370264530181885e-02 -1.020663976669311523e-02
-3.352702856063842773e-01 1.449984461069107056e-01 2.642037160694599152e-02 5.489264428615570068e-02 -1.013375446200370789e-02
1.729332804679870605e+00 5.424523353576660156e-02 5.781392101198434830e-04 -5.448234826326370239e-02 -1.672852225601673126e-02
1.733239412307739258e+00 5.507793277502059937e-02 -1.111436542123556137e-02 -5.110697448253631592e-02 -1.566626504063606262e-02
-2.203728914260864258e+00 -4.027538001537322998e-02 -6.035073660314083099e-03 -7.112656719982624054e-03 7.774862926453351974e-03
6.145598292350769043e-01 3.468425199389457703e-02 -1.296860277652740479e-01 2.509879879653453827e-02 1.853100582957267761e-02
6.116440892219543457e-01 3.279006853699684143e-02 -1.324894726276397705e-01 1.237709308043122292e-03 1.951325871050357819e-02
5.346598625183105469e-01 2.808504179120063782e-02 -1.185009330511093140e-01 2.808819524943828583e-02 1.838948577642440796e-02
1.171829819679260254e+00 7.092592120170593262e-02 3.871650621294975281e-02 1.736583858728408813e-01 1.221611164510250092e-02
-2.199789524078369141e+00 -5.676870420575141907e-02 -6.292955367825925350e-04 -9.509390220046043396e-03 -1.558682415634393692e-02
2.140254259109497070e+00 2.113464474678039551e-02 2.428903616964817047e-02 6.626768968999385834e-03 -3.141831234097480774e-02
-1.981072545051574707e+00 -7.765077799558639526e-02 -5.602733045816421509e-02 -1.010030880570411682e-02 -5.116173997521400452e-03
-2.150137424468994141e+00 -6.640253216028213501e-02 9.603082202374935150e-03 -2.510881610214710236e-02 -6.850273814052343369e-03
-2.126519680023193359e+00 -6.777379661798477173e-02 3.564118407666683197e-03 -1.279736403375864029e-02 1.108025107532739639e-02
5.158105492591857910e-01 2.573012746870517731e-02 -1.416226923465728760e-01 1.499106083065271378e-02 -4.127154126763343811e-02
4.272750318050384521e-01 3.912034630775451660e-02 -2.225697040557861328e-02 -1.538134366273880005e-01 2.176911570131778717e-03
5.097310543060302734e-01 -1.114282198250293732e-02 1.045421212911605835e-01 2.514828927814960480e-02 -1.243577990680932999e-02
1.033599257469177246e+00 5.401997361332178116e-03 -1.364604104310274124e-02 -2.335413247346878052e-01 1.263517234474420547e-02
-2.190250396728515625e+00 -3.848562389612197876e-02 -9.645803831517696381e-03 4.905049223452806473e-03 1.060425769537687302e-02
1.287744998931884766e+00 2.744998596608638763e-02 4.527209699153900146e-02 1.940902471542358398e-01 -1.862747408449649811e-02
6.476026177406311035e-01 3.576360270380973816e-02 -1.748089790344238281e-01 -2.197726070880889893e-02 2.706382609903812408e-02
-2.221107721328735352e+00 -4.747092723846435547e-02 3.545515937730669975e-03 -8.527833968400955200e-03 -2.738713752478361130e-03
9.466118812561035156e-01 -3.265019040554761887e-03 3.858802467584609985e-02 -2.030732780694961548e-01 2.857150882482528687e-02
-2.195654153823852539e+00 -7.086171954870223999e-02 1.086259819567203522e-02 -2.467159368097782135e-02 -1.009823475033044815e-02
-1.217718198895454407e-01 9.476482123136520386e-02 -2.034698612987995148e-02 -2.306794188916683197e-02 -6.465443223714828491e-02
-9.340860843658447266e-01 4.473374038934707642e-02 5.751143768429756165e-02 -3.121938183903694153e-02 -9.569367766380310059e-02
-2.690066993236541748e-01 1.132295578718185425e-01 2.290176227688789368e-02 5.765407811850309372e-03 -2.241315960418432951e-04
7.023874521255493164e-01 -3.170124441385269165e-02 2.710596621036529541e-01 9.343354403972625732e-02 2.091587148606777191e-02
-2.219828128814697266e+00 -5.495345219969749451e-02 4.895896563539281487e-05 -1.412188983522355556e-03 4.248273093253374100e-03
-2.237433910369873047e+00 -1.677623204886913300e-02 -7.119888439774513245e-03 2.610771916806697845e-03 1.445954851806163788e-02
1.316365748643875122e-01 -4.645852744579315186e-02 -4.361872095614671707e-03 8.799729496240615845e-02 -3.709141165018081665e-02
-2.191414117813110352e+00 -4.770640283823013306e-02 3.237034194171428680e-03 -3.401507623493671417e-03 2.838379470631480217e-03
6.027253270149230957e-01 4.287624359130859375e-02 -1.774655282497406006e-01 2.717898786067962646e-02 2.138057909905910492e-02
1.899241089820861816e+00 2.715207450091838837e-02 8.295575529336929321e-02 5.431245546787977219e-03 -1.205134950578212738e-02
-5.110748410224914551e-01 2.901734411716461182e-01 6.183255929499864578e-03 6.918515264987945557e-02 -3.518995642662048340e-02
-9.127115607261657715e-01 2.614550478756427765e-02 2.936759404838085175e-02 -3.126792982220649719e-02 -2.947503887116909027e-02
6.394953727722167969e-01 1.291055977344512939e-02 -5.134980008006095886e-02 -3.208343312144279480e-02 2.501519955694675446e-02
6.020344495773315430e-01 1.144680473953485489e-02 -1.734196208417415619e-02 4.596929997205734253e-03 2.300443314015865326e-02
-2.207963466644287109e+00 -3.243822976946830750e-02 -3.248785622417926788e-03 9.197833947837352753e-03 -1.335555966943502426e-02
2.176406145095825195e+00 2.663957700133323669e-02 1.046433928422629833e-03 -1.317110564559698105e-02 1.613703183829784393e-02
2.172941684722900391e+00 4.888442158699035645e-02 7.777028251439332962e-03 -1.894675195217132568e-02 1.551411394029855728e-02
5.888192057609558105e-01 3.436197713017463684e-02 -1.501986682415008545e-01 -3.845816478133201599e-02 1.427534595131874084e-02
8.485634922981262207e-01 6.446654349565505981e-02 -1.133654266595840454e-01 1.765147149562835693e-01 -2.734833396971225739e-02
1.980815052986145020e+00 6.090694293379783630e-02 1.575080119073390961e-02 1.156460028141736984e-02 5.575255025178194046e-03
2.183853864669799805e+00 6.988936662673950195e-02 -1.084052678197622299e-02 1.296028122305870056e-02 5.547781940549612045e-03
1.223682045936584473e+00 -7.011543959379196167e-03 5.238651856780052185e-02 -2.414423823356628418e-01 1.667954958975315094e-02
6.764331459999084473e-01 3.092102520167827606e-02 -1.126111894845962524e-01 -3.813317790627479553e-02 2.183815091848373413e-02
1.861700773239135742e+00 3.603072464466094971e-02 5.802582204341888428e-02 1.380175724625587463e-02 -9.531555697321891785e-03
5.898298621177673340e-01 3.638371452689170837e-02 -1.399016529321670532e-01 2.138881199061870575e-02 1.955288648605346680e-02
-2.226224660873413086e+00 -4.189709573984146118e-02 8.169303648173809052e-03 -2.148938737809658051e-02 1.659597083926200867e-02
6.619572043418884277e-01 7.536514103412628174e-02 -1.316219568252563477e-01 4.696045070886611938e-02 -1.087806373834609985e-02
1.832376003265380859e+00 1.438730023801326752e-02 7.779704034328460693e-02 3.564658761024475098e-02 -4.018706455826759338e-02
-1.170786738395690918e+00 -2.811315953731536865e-01 -5.771671608090400696e-02 -6.506354839075356722e-05 7.986243069171905518e-02
5.851708650588989258e-01 3.855979815125465393e-02 -1.357922852039337158e-01 2.827310934662818909e-02 2.832112461328506470e-02
-2.084425687789916992e+00 -5.470038205385208130e-02 2.013505809009075165e-02 -2.955208905041217804e-02 -8.749897824600338936e-04
-2.203593254089355469e+00 -1.805272512137889862e-02 -1.679386571049690247e-02 1.598463766276836395e-02 1.190382335335016251e-02
6.739909052848815918e-01 -1.271173125132918358e-03 2.289474569261074066e-02 -1.946532130241394043e-01 -3.438318520784378052e-02
5.793962478637695312e-01 1.615233719348907471e-02 -8.768004924058914185e-02 -3.498898446559906006e-02 -1.114431768655776978e-03
-1.769482135772705078e+00 1.066451743245124817e-01 3.947584424167871475e-03 7.132705301046371460e-03 -1.295469421893358231e-02
-2.147091150283813477e+00 -4.064985737204551697e-02 -1.268806029111146927e-02 -1.619833707809448242e-02 -8.841275237500667572e-03
-2.228255510330200195e+00 -4.211422801017761230e-02 1.667613978497684002e-03 -1.247563632205128670e-03 5.648027290590107441e-04
-3.000873923301696777e-01 -1.625729841180145741e-03 9.890063665807247162e-03 8.278082124888896942e-03 -1.894781365990638733e-02
1.234552383422851562e+00 1.345736160874366760e-02 -6.535303592681884766e-02 -2.395619153976440430e-01 4.452524590305984020e-04
-2.209660768508911133e+00 -5.204515904188156128e-02 1.802526414394378662e-02 -2.872062101960182190e-02 -4.534701816737651825e-03
1.273511648178100586e+00 1.796437986195087433e-02 -7.029608637094497681e-02 -2.123400270938873291e-01 -1.436944119632244110e-02
5.782974958419799805e-01 -3.797473013401031494e-02 2.661966681480407715e-01 9.940897673368453979e-02 5.220657214522361755e-02
5.210172533988952637e-01 5.106158182024955750e-02 1.473750621080398560e-01 2.279074490070343018e-01 3.460931777954101562e-02
5.715069770812988281e-01 1.790002174675464630e-02 -7.026582956314086914e-02 -2.787634357810020447e-02 2.381809288635849953e-03
3.855492770671844482e-01 6.170138344168663025e-02 5.646589212119579315e-03 1.845136880874633789e-01 -2.462758868932723999e-02
-8.908223509788513184e-01 -1.334635615348815918e-01 -2.080718241631984711e-02 -1.197894662618637085e-02 7.531306147575378418e-02
1.207035899162292480e+00 1.714454777538776398e-02 1.006657406687736511e-01 2.154107242822647095e-01 1.183850690722465515e-02
7.253369688987731934e-01 1.282115466892719269e-02 -5.279833823442459106e-02 -1.282131373882293701e-01 2.332543767988681793e-02
7.219396829605102539e-01 1.211359351873397827e-02 -5.117970332503318787e-02 -1.293420344591140747e-01 2.334889583289623260e-02
1.052251577377319336e+00 7.899329066276550293e-03 -3.133995458483695984e-02 -2.297476530075073242e-01 1.060644816607236862e-02
6.276969909667968750e-01 7.777532562613487244e-03 -2.627282030880451202e-02 -9.484397619962692261e-02 1.769298315048217773e-02
7.140656709671020508e-01 1.224338542670011520e-02 -5.068876594305038452e-02 -1.125480830669403076e-01 1.995357684791088104e-02
7.079867720603942871e-01 1.320488005876541138e-02 -5.160847678780555725e-02 -1.109740436077117920e-01 1.872661709785461426e-02
7.609482407569885254e-01 1.351080927997827530e-02 -6.132993102073669434e-02 -1.374892145395278931e-01 1.953965239226818085e-02
7.008398175239562988e-01 1.386477705091238022e-02 -6.068159639835357666e-02 -1.093052327632904053e-01 1.673234812915325165e-02
7.015963792800903320e-01 1.424582581967115402e-02 -6.202402710914611816e-02 -1.073740273714065552e-01 1.651303842663764954e-02
7.019008398056030273e-01 1.425124332308769226e-02 -6.205590069293975830e-02 -1.073563918471336365e-01 1.653805561363697052e-02
7.027018666267395020e-01 1.423329394310712814e-02 -6.173919886350631714e-02 -1.070793643593788147e-01 1.664040237665176392e-02
7.587113380432128906e-01 1.403044909238815308e-02 -6.458074599504470825e-02 -1.341339200735092163e-01 1.874705031514167786e-02
7.596199512481689453e-01 1.397996302694082260e-02 -6.457783281803131104e-02 -1.349752843379974365e-01 1.877503283321857452e-02
7.584401965141296387e-01 1.401501428335905075e-02 -6.464646011590957642e-02 -1.343989521265029907e-01 1.851047016680240631e-02
7.419175505638122559e-01 1.521064154803752899e-02 -6.972043961286544800e-02 -1.257097572088241577e-01 1.831689476966857910e-02
6.889141798019409180e-01 1.595872081816196442e-02 -6.769346445798873901e-02 -9.882770478725433350e-02 1.585123315453529358e-02
6.781472563743591309e-01 1.453842502087354660e-02 -5.949901789426803589e-02 -9.900073707103729248e-02 1.784041710197925568e-02
7.391927838325500488e-01 1.298314612358808517e-02 -5.931282043457031250e-02 -1.255148798227310181e-01 1.725640334188938141e-02
6.887340545654296875e-01 1.338879950344562531e-02 -5.633250251412391663e-02 -9.652288258075714111e-02 1.627721451222896576e-02
6.975998282432556152e-01 1.386850606650114059e-02 -6.228112429380416870e-02 -9.690710157155990601e-02 1.568548008799552917e-02
6.968899965286254883e-01 1.396252494305372238e-02 -6.238549575209617615e-02 -9.654007107019424438e-02 1.544197741895914078e-02
6.828886270523071289e-01 1.430977787822484970e-02 -6.300847232341766357e-02 -9.361682087182998657e-02 1.658631861209869385e-02
6.673892736434936523e-01 1.355569250881671906e-02 -5.256499350070953369e-02 -9.660623222589492798e-02 1.944890432059764862e-02
6.845418810844421387e-01 1.374222245067358017e-02 -5.341459810733795166e-02 -1.068545654416084290e-01 2.018814533948898315e-02
6.743156313896179199e-01 1.384923607110977173e-02 -5.500718578696250916e-02 -1.056543588638305664e-01 2.191495150327682495e-02
6.439690589904785156e-01 1.410166546702384949e-02 -5.112797766923904419e-02 -9.125283360481262207e-02 2.117584086954593658e-02
6.463656425476074219e-01 1.421795040369033813e-02 -5.168032273650169373e-02 -9.097759425640106201e-02 2.124900184571743011e-02
6.434338092803955078e-01 1.314891502261161804e-02 -4.902616888284683228e-02 -9.183074533939361572e-02 2.153123170137405396e-02
6.433844566345214844e-01 1.312218885868787766e-02 -4.904169961810112000e-02 -9.223923832178115845e-02 2.153414301574230194e-02
6.436589956283569336e-01 1.314929034560918808e-02 -4.901041463017463684e-02 -9.178674221038818359e-02 2.156527899205684662e-02
6.449680328369140625e-01 1.307600457221269608e-02 -4.727914556860923767e-02 -9.060247987508773804e-02 2.213075757026672363e-02
6.278537511825561523e-01 1.110678724944591522e-02 -4.298198595643043518e-02 -1.021148636937141418e-01 2.306498028337955475e-02
6.254861354827880859e-01 1.124977320432662964e-02 -4.290848970413208008e-02 -1.011824905872344971e-01 2.283193171024322510e-02
-4.539856910705566406e-01 -3.615282848477363586e-02 4.441393911838531494e-02 -2.948129316791892052e-03 9.324929676949977875e-03
4.599347412586212158e-01 4.443862289190292358e-02 -8.431906253099441528e-02 -1.395906601101160049e-02 -1.465864572674036026e-02
-4.119159579277038574e-01 -2.769334241747856140e-02 7.043015956878662109e-02 -5.096613429486751556e-03 -6.280344445258378983e-03
-4.437500834465026855e-01 -4.012227430939674377e-02 6.527132540941238403e-02 -6.366590037941932678e-03 1.231858786195516586e-02
1.158408522605895996e+00 5.221578478813171387e-02 -1.174216717481613159e-01 -1.757913380861282349e-01 -2.424895018339157104e-02
1.989236950874328613e+00 3.973337635397911072e-02 -3.353630751371383667e-02 1.642069965600967407e-02 2.642368199303746223e-03
8.036800622940063477e-01 4.090308770537376404e-02 7.262451201677322388e-02 1.421444565057754517e-01 1.029827259480953217e-02
-2.219736099243164062e+00 -6.648732349276542664e-03 -1.626846194267272949e-02 -5.387295968830585480e-03 5.224838480353355408e-02
5.701621770858764648e-01 6.016021221876144409e-02 1.164953857660293579e-01 1.479104012250900269e-01 2.604097872972488403e-02
5.524636507034301758e-01 6.377971172332763672e-02 1.060613021254539490e-01 1.599538177251815796e-01 2.369566075503826141e-02
6.612336635589599609e-01 -6.794265005737543106e-03 2.347954176366329193e-02 8.083537220954895020e-02 2.369472198188304901e-02
1.400520324707031250e+00 4.242696985602378845e-02 3.644345095381140709e-03 2.185292243957519531e-01 3.987828269600868225e-03
7.679394483566284180e-01 3.027586080133914948e-02 1.198248863220214844e-01 2.376365661621093750e-01 6.726760184392333031e-04
3.901807367801666260e-01 4.692585766315460205e-02 -1.098340973258018494e-01 3.386327996850013733e-02 -5.214728042483329773e-02
-2.196548938751220703e+00 -5.241231620311737061e-02 6.825400982052087784e-03 -1.115972083061933517e-02 -3.014158457517623901e-03
1.009522914886474609e+00 -1.407630974426865578e-03 -3.870378946885466576e-03 -2.605935633182525635e-01 1.264707837253808975e-02
1.118412733078002930e+00 1.012403964996337891e-01 -6.624519824981689453e-02 2.207342833280563354e-01 -1.994080469012260437e-02
1.291692376136779785e+00 4.795230343006551266e-04 -1.518227718770503998e-02 -2.444421947002410889e-01 3.098751977086067200e-02
-2.148263692855834961e+00 -2.722912095487117767e-02 -3.313848748803138733e-02 -9.620897471904754639e-03 6.888039410114288330e-02
3.159630894660949707e-01 4.709071293473243713e-02 6.815252453088760376e-02 4.574503749608993530e-03 -1.747168041765689850e-02
3.544469475746154785e-01 4.138271510601043701e-02 8.980309963226318359e-02 7.549343630671501160e-03 -9.483156725764274597e-03
3.043957650661468506e-01 5.497679859399795532e-02 5.755520612001419067e-02 4.064091946929693222e-03 -1.517006289213895798e-02
1.177577376365661621e+00 1.682072295807301998e-03 -4.844969883561134338e-02 -2.225409448146820068e-01 3.078122250735759735e-02
2.976393103599548340e-01 4.779619351029396057e-02 6.100668013095855713e-02 -1.291481312364339828e-02 -1.524052396416664124e-02
2.227446287870407104e-01 1.082654520869255066e-01 2.309526316821575165e-02 4.548532143235206604e-02 -1.397095061838626862e-02
2.132892161607742310e-01 1.151227280497550964e-01 1.598418876528739929e-02 5.422208085656166077e-02 -1.446910109370946884e-02
2.859184443950653076e-01 5.947014689445495605e-02 4.722810536623001099e-02 -3.341906005516648293e-03 -1.555360481142997742e-02
3.811335563659667969e-01 2.061029151082038879e-02 1.592882722616195679e-01 6.996527314186096191e-02 -3.213902935385704041e-02
9.957787394523620605e-01 -5.451792385429143906e-03 4.821077361702919006e-02 -1.547286212444305420e-01 3.453404456377029419e-02
-2.209786415100097656e+00 -3.237229585647583008e-02 -1.997971674427390099e-03 9.293810464441776276e-03 -1.072602625936269760e-02
2.017669975757598877e-01 1.277090460062026978e-01 -1.070365160703659058e-01 1.250414699316024780e-01 -3.203880041837692261e-02
1.883873820304870605e+00 7.997006922960281372e-02 -7.298611104488372803e-03 3.494049608707427979e-02 2.522373571991920471e-02
6.327897906303405762e-01 -4.347169026732444763e-02 2.611957788467407227e-01 4.035379365086555481e-02 6.036055460572242737e-02
-2.215731382369995117e+00 -2.526059933006763458e-02 -8.368378505110740662e-03 -1.797391474246978760e-02 5.004600808024406433e-02
7.901179194450378418e-01 4.176699090749025345e-03 -2.757688798010349274e-02 -1.509846001863479614e-01 1.862837560474872589e-02
7.990059852600097656e-01 -6.443443149328231812e-02 3.888314664363861084e-01 1.056721284985542297e-01 7.450690865516662598e-02
1.080144524574279785e+00 1.013816241174936295e-02 -4.310172796249389648e-02 -1.952970027923583984e-01 3.288014605641365051e-02
-2.172772407531738281e+00 -3.081662021577358246e-02 -2.090871147811412811e-02 3.610367188230156898e-03 4.672569409012794495e-02
1.006069421768188477e+00 5.634947679936885834e-03 -2.127452939748764038e-02 -1.685845702886581421e-01 -1.793124340474605560e-02
5.926138162612915039e-01 -5.173231288790702820e-02 -8.639758825302124023e-02 -1.161357853561639786e-02 -1.280597299337387085e-01
1.081210374832153320e+00 1.940976828336715698e-03 1.432565599679946899e-02 -1.626753509044647217e-01 5.418790131807327271e-02
1.066067695617675781e+00 -4.284609458409249783e-04 2.366481721401214600e-02 -1.700364649295806885e-01 5.358435213565826416e-02
2.010697364807128906e+00 1.343824621289968491e-02 -2.227546088397502899e-02 1.933765783905982971e-02 -2.719853306189179420e-03
-2.214183092117309570e+00 -2.070587500929832458e-02 1.058729551732540131e-02 -4.759006667882204056e-03 6.129728164523839951e-03
6.018386483192443848e-01 -3.985603898763656616e-02 2.605756521224975586e-01 8.301562070846557617e-02 5.510049685835838318e-02
2.037037849426269531e+00 2.990298159420490265e-02 -3.225627169013023376e-02 2.945573255419731140e-02 -6.131799891591072083e-03
7.115948200225830078e-01 -5.343237146735191345e-02 3.303821384906768799e-01 6.269754469394683838e-02 8.445131778717041016e-02
-2.209690093994140625e+00 7.826676592230796814e-03 -4.408845677971839905e-03 -9.164053946733474731e-03 5.531748384237289429e-02
8.607299327850341797e-01 -5.312025547027587891e-03 3.027796931564807892e-02 -1.445925086736679077e-01 4.120786488056182861e-02
-2.204253673553466797e+00 7.065414916723966599e-03 -1.241103373467922211e-02 -1.251880824565887451e-02 6.270034611225128174e-02
-2.201404333114624023e+00 -1.522437669336795807e-02 -5.978752393275499344e-03 -1.208722963929176331e-02 4.945788159966468811e-02
-7.007925510406494141e-01 9.410591796040534973e-03 2.837936393916606903e-02 -2.582882158458232880e-02 -3.517752140760421753e-02
-7.010521888732910156e-01 1.443079113960266113e-02 2.963260561227798462e-02 -2.631440572440624237e-02 -3.564693778753280640e-02
-6.629817485809326172e-01 -1.452630292624235153e-02 3.507938981056213379e-02 -3.262016177177429199e-02 -4.262984171509742737e-02
-2.210424423217773438e+00 2.040749415755271912e-02 -9.430069476366043091e-03 -9.143707342445850372e-03 5.998452752828598022e-02
-2.205795526504516602e+00 3.442828357219696045e-02 -1.114264782518148422e-02 -5.828995257616043091e-03 5.877136066555976868e-02
4.678878784179687500e-01 -6.734900176525115967e-02 -7.942175120115280151e-02 -2.748628519475460052e-02 -5.794994905591011047e-02
-2.759315446019172668e-02 1.147326547652482986e-03 1.305534094572067261e-01 6.874748319387435913e-02 3.314660489559173584e-02
-1.594898104667663574e+00 2.037639170885086060e-02 -3.386139124631881714e-02 2.267469838261604309e-02 1.212971471250057220e-02
1.677169919013977051e+00 -2.112996950745582581e-02 3.105739597231149673e-03 -1.481446065008640289e-02 -5.390193313360214233e-02
6.097447276115417480e-01 -2.810584008693695068e-02 2.317251265048980713e-01 1.305259615182876587e-01 5.839527025818824768e-02
-2.196761131286621094e+00 -1.978183165192604065e-02 -1.694518886506557465e-02 -1.591004617512226105e-02 5.910903587937355042e-02
1.080786228179931641e+00 2.224537776783108711e-03 2.188392356038093567e-02 -1.852227896451950073e-01 4.792992770671844482e-02
1.075865626335144043e+00 5.495900288224220276e-03 -3.037064336240291595e-03 -1.974614709615707397e-01 4.223153367638587952e-02
-2.193768739700317383e+00 -2.475736849009990692e-02 -1.315483171492815018e-02 -2.013033069670200348e-02 5.428045988082885742e-02
-2.197895050048828125e+00 -2.537021785974502563e-02 -1.252914126962423325e-02 -2.053209580481052399e-02 5.462878942489624023e-02
-2.193315505981445312e+00 -1.691884361207485199e-02 8.462333789793774486e-05 -3.267268091440200806e-02 6.419325619935989380e-02
-2.201045989990234375e+00 -1.251567527651786804e-02 5.883950274437665939e-03 -3.626874834299087524e-02 6.268589198589324951e-02
-2.207672595977783203e+00 -4.641290288418531418e-03 -5.917225033044815063e-03 -1.812592707574367523e-02 6.159682199358940125e-02
-2.210625886917114258e+00 -1.259373780339956284e-02 -3.264860017225146294e-03 -2.493949420750141144e-02 6.495791673660278320e-02
-2.194767951965332031e+00 -1.407409179955720901e-02 3.974421415477991104e-03 -4.046581313014030457e-02 6.164379045367240906e-02
5.528200268745422363e-01 3.992274403572082520e-02 -1.687383949756622314e-01 3.204974532127380371e-02 1.704256050288677216e-02
-2.208747863769531250e+00 4.115822724997997284e-03 3.919974187738262117e-05 -2.327767387032508850e-02 6.400365382432937622e-02
1.016118884086608887e+00 8.725193329155445099e-04 -4.642908461391925812e-04 -1.888554692268371582e-01 4.291171953082084656e-02
-2.209795236587524414e+00 1.251071412116289139e-02 -6.292201112955808640e-03 -1.550189498811960220e-02 5.966790392994880676e-02
7.498681545257568359e-01 -7.291959971189498901e-02 3.688752055168151855e-01 1.467871963977813721e-01 5.315809696912765503e-02
-2.215966224670410156e+00 3.846936626359820366e-03 -6.869679782539606094e-03 -1.035433262586593628e-02 5.424622446298599243e-02
-2.216656446456909180e+00 2.313950099050998688e-03 -6.124955136328935623e-03 -1.160486880689859390e-02 5.350695922970771790e-02
-2.208450317382812500e+00 3.928336780518293381e-03 2.206433098763227463e-03 -1.941111311316490173e-02 5.188449099659919739e-02
-2.178423881530761719e+00 5.933952517807483673e-03 -3.831324633210897446e-03 -1.055302936583757401e-02 5.131863430142402649e-02
2.139968156814575195e+00 -3.745851572602987289e-03 1.104067196138203144e-03 1.149211544543504715e-02 -4.906589165329933167e-02
-1.972329497337341309e+00 8.584881201386451721e-03 5.288096610456705093e-03 -2.866786345839500427e-02 5.968450009822845459e-02
-1.858297884464263916e-01 4.998315125703811646e-02 -6.017528474330902100e-02 -8.619223954156041145e-04 -6.641882471740245819e-03
-2.162589728832244873e-01 2.137134550139307976e-03 -1.287548150867223740e-02 -4.437181726098060608e-02 1.376654952764511108e-03
1.249306559562683105e+00 -1.420056968927383423e-01 5.267966985702514648e-01 -2.326337993144989014e-02 -5.299764499068260193e-02
1.300705790519714355e+00 -1.394684612751007080e-01 5.153417587280273438e-01 -5.169660598039627075e-02 -5.293160304427146912e-02
1.232607960700988770e+00 -1.373680382966995239e-01 5.032656788825988770e-01 -4.576696455478668213e-02 -5.347683280706405640e-02
1.270991563796997070e+00 -1.397912502288818359e-01 5.170122385025024414e-01 -4.179551452398300171e-02 -5.317315086722373962e-02
1.267481207847595215e+00 -1.389086544513702393e-01 5.145730376243591309e-01 -4.085505008697509766e-02 -5.306211113929748535e-02
1.254598498344421387e+00 -1.411512792110443115e-01 5.230455398559570312e-01 -3.118906170129776001e-02 -5.384019762277603149e-02
1.271526694297790527e+00 -1.395100206136703491e-01 5.151587128639221191e-01 -4.180492088198661804e-02 -5.350745841860771179e-02
1.361985206604003906e+00 -1.250124424695968628e-01 4.623845219612121582e-01 -8.494332432746887207e-02 -4.337206110358238220e-02
1.278756976127624512e+00 -1.400301903486251831e-01 5.025214552879333496e-01 -4.616657271981239319e-02 -5.470053106546401978e-02
1.283683657646179199e+00 -1.379104256629943848e-01 4.957538247108459473e-01 -4.935254529118537903e-02 -5.340942367911338806e-02
1.345255970954895020e+00 -1.372614800930023193e-01 5.031200647354125977e-01 -6.056218594312667847e-02 -4.186313599348068237e-02
1.238768100738525391e+00 -1.342211812734603882e-01 4.610491693019866943e-01 -6.921924650669097900e-02 -5.626334995031356812e-02
1.164572000503540039e+00 -1.360275596380233765e-01 4.559907317161560059e-01 -4.523813724517822266e-02 -6.442740559577941895e-02
-2.253512442111968994e-01 9.788940846920013428e-02 -2.321458607912063599e-02 -6.831661798059940338e-03 -4.561054811347275972e-04
-1.947813987731933594e+00 -3.152225539088249207e-02 9.950167685747146606e-02 -5.159796401858329773e-02 -1.247156877070665359e-02
1.779100179672241211e+00 -2.823215676471590996e-03 -1.530974209308624268e-01 -6.501566618680953979e-02 -1.038351431488990784e-01
6.744037270545959473e-01 -5.058665201067924500e-02 3.329319357872009277e-01 1.191408634185791016e-01 7.708559930324554443e-02
-2.200144529342651367e+00 1.781689375638961792e-02 -1.037218794226646423e-02 -1.059367507696151733e-02 6.323549151420593262e-02
-2.211802482604980469e+00 -1.631340943276882172e-02 -1.053531095385551453e-02 -1.689194701611995697e-02 5.508600547909736633e-02
-2.139115095138549805e+00 -7.353619206696748734e-03 8.916036225855350494e-03 -2.149106189608573914e-02 6.696585565805435181e-02
-2.201518535614013672e+00 -1.520956493914127350e-02 -3.541451878845691681e-03 -2.162923291325569153e-02 6.069234386086463928e-02
-2.199568033218383789e+00 6.336193473543971777e-05 1.349959708750247955e-02 -2.911148965358734131e-02 4.004872217774391174e-02
-2.152353286743164062e+00 1.803194358944892883e-02 9.260570630431175232e-03 -2.819825895130634308e-02 5.902934819459915161e-02
-1.016614317893981934e+00 -3.344959020614624023e-02 -2.793053572531789541e-04 -1.121101435273885727e-02 6.718814373016357422e-02
-1.786215543746948242e+00 -4.463900253176689148e-02 -7.449080236256122589e-03 -3.707241266965866089e-02 6.619040668010711670e-02
-1.982119441032409668e+00 -7.528178393840789795e-02 -1.277986099012196064e-03 -2.400350756943225861e-02 7.181608676910400391e-02
-2.016590833663940430e+00 -5.251581966876983643e-02 1.742784283123910427e-03 -2.420904673635959625e-02 6.900088489055633545e-02
-1.932226061820983887e+00 -6.386677920818328857e-02 7.464550435543060303e-02 -7.185825705528259277e-02 -3.161568194627761841e-02
-2.107647657394409180e+00 3.523806342855095863e-03 1.134963519871234894e-02 -3.139226511120796204e-02 6.006813421845436096e-02
6.125909686088562012e-01 -4.412274435162544250e-02 2.823525071144104004e-01 1.087820455431938171e-01 6.805516779422760010e-02
-2.190769433975219727e+00 -2.873100165743380785e-04 -2.165982878068462014e-04 -1.960198767483234406e-02 6.188662350177764893e-02
-2.202244758605957031e+00 7.315675262361764908e-03 -3.359459340572357178e-03 -1.540347840636968613e-02 6.077643111348152161e-02
-2.173327922821044922e+00 2.446246705949306488e-02 -4.628330003470182419e-03 -1.016860455274581909e-02 5.705001205205917358e-02
-2.150424242019653320e+00 2.038224972784519196e-02 -8.175581693649291992e-03 -6.747783627361059189e-04 5.428070202469825745e-02
-2.072172641754150391e+00 2.696683257818222046e-02 5.023035686463117599e-03 -2.856499515473842621e-02 4.556304588913917542e-02
6.572454571723937988e-01 -2.506826538592576981e-03 5.307593196630477905e-02 -6.887851655483245850e-02 3.280084207653999329e-02
5.280835032463073730e-01 4.196412116289138794e-02 -1.638607680797576904e-01 5.041275545954704285e-02 1.662245020270347595e-02
-2.152932643890380859e+00 2.680918946862220764e-02 -1.478757057338953018e-02 -2.919648773968219757e-03 5.806239321827888489e-02
-2.194045066833496094e+00 1.992025971412658691e-02 -1.722015091218054295e-03 1.320495386607944965e-03 3.029816783964633942e-02
-1.051363110542297363e+00 -2.298554033041000366e-01 -3.202231973409652710e-02 -1.574765332043170929e-02 8.907204121351242065e-02
4.943243265151977539e-01 8.294416218996047974e-02 -1.162702217698097229e-01 1.203843802213668823e-01 -4.801217094063758850e-02
-1.936509847640991211e+00 -3.315633535385131836e-02 1.004269495606422424e-01 -3.911376371979713440e-02 -1.877256669104099274e-02
-2.203634500503540039e+00 2.878717519342899323e-02 -2.026619156822562218e-03 -1.251059863716363907e-02 4.630338028073310852e-02
-2.203364849090576172e+00 2.862615510821342468e-02 -2.252460457384586334e-03 -1.234463602304458618e-02 4.618463292717933655e-02
-2.174896478652954102e+00 3.651101514697074890e-02 -8.379499777220189571e-04 -1.230171788483858109e-02 4.406864568591117859e-02
-2.204416751861572266e+00 2.181011252105236053e-02 -8.749556727707386017e-03 -1.049568410962820053e-02 6.151194870471954346e-02
-2.197811841964721680e+00 1.739313825964927673e-02 -1.295926235616207123e-02 -1.298587024211883545e-02 6.918432563543319702e-02
-2.172839641571044922e+00 3.049393557012081146e-02 -1.115699764341115952e-02 -1.489338837563991547e-02 4.694899544119834900e-02
-2.144652366638183594e+00 2.629618532955646515e-02 5.288456566631793976e-03 -2.582061104476451874e-02 3.432153165340423584e-02
-2.186269283294677734e+00 2.479496039450168610e-02 -3.184363245964050293e-03 -1.884213462471961975e-02 5.626134574413299561e-02
9.849614500999450684e-01 -8.119963109493255615e-03 7.609338313341140747e-02 -1.676084250211715698e-01 4.058352112770080566e-02
8.745236992835998535e-01 1.205936074256896973e-01 -2.905369699001312256e-01 1.766121238470077515e-01 -4.330594837665557861e-02
-2.197492122650146484e+00 8.306680247187614441e-03 9.760897606611251831e-03 -3.189231827855110168e-02 5.494275689125061035e-02
-2.173147439956665039e+00 4.426676034927368164e-02 2.074346644803881645e-03 -2.107171714305877686e-02 4.416130110621452332e-02
-2.171263217926025391e+00 4.386117309331893921e-02 3.427494550123810768e-03 -2.210421115159988403e-02 4.663224145770072937e-02
-6.584535837173461914e-01 6.130195781588554382e-02 -1.905867829918861389e-02 -1.813833042979240417e-02 1.047045085579156876e-02
1.143001914024353027e+00 -5.039371922612190247e-02 -3.062336891889572144e-02 7.193034887313842773e-02 -7.354661077260971069e-02
-1.596440523862838745e-01 7.578859478235244751e-02 4.939480125904083252e-02 7.133624982088804245e-03 3.847984597086906433e-02
-7.278963923454284668e-01 2.413285337388515472e-02 9.268740564584732056e-02 -3.543491289019584656e-02 3.736355807632207870e-03
1.145062685012817383e+00 -5.330622941255569458e-02 -3.199052810668945312e-02 8.058489114046096802e-02 -6.989628821611404419e-02
-2.564411424100399017e-02 1.092490507289767265e-03 7.256007194519042969e-02 8.767547085881233215e-03 3.863648325204849243e-02
1.661213859915733337e-02 -4.581842571496963501e-02 5.910405144095420837e-02 2.594756893813610077e-02 6.497686356306076050e-02
-2.165888071060180664e+00 6.884345412254333496e-02 -5.958479363471269608e-03 9.485602495260536671e-04 6.219439581036567688e-02
-2.195140123367309570e+00 4.722620546817779541e-02 -1.011837925761938095e-02 8.864059345796704292e-04 6.854872405529022217e-02
-4.098109900951385498e-01 -5.431656166911125183e-02 -2.580844983458518982e-02 9.241446852684020996e-03 5.231966078281402588e-02
-4.043254852294921875e-01 -2.473171986639499664e-02 3.222497645765542984e-03 9.155837818980216980e-03 3.628332540392875671e-02
-5.042429566383361816e-01 -1.102311629801988602e-02 -2.969090826809406281e-02 9.659780189394950867e-03 4.306586831808090210e-02
-2.193156480789184570e+00 1.483670249581336975e-02 -1.706243678927421570e-02 -5.278898868709802628e-03 6.458348780870437622e-02
-2.179053068161010742e+00 1.202133018523454666e-02 -5.893490277230739594e-03 -7.370668929070234299e-03 6.495278328657150269e-02
1.920965671539306641e+00 5.010248720645904541e-02 -1.005180478096008301e-01 2.834509871900081635e-02 9.898236021399497986e-03
-2.198836565017700195e+00 2.773437090218067169e-02 -1.482089143246412277e-02 -2.566317329183220863e-03 6.164564564824104309e-02
6.810874938964843750e-01 -2.078104205429553986e-02 2.646416723728179932e-01 1.719890087842941284e-01 6.540476530790328979e-02
7.095385193824768066e-01 -4.150429740548133850e-02 3.088960349559783936e-01 1.364005059003829956e-01 2.350163646042346954e-02
-2.170553922653198242e+00 2.433986775577068329e-02 -1.163631677627563477e-02 9.890209883451461792e-03 6.399990618228912354e-02
-2.179026126861572266e+00 1.510651502758264542e-02 -2.118837088346481323e-02 -2.055719261988997459e-03 6.245716661214828491e-02
-2.202803850173950195e+00 1.304212608374655247e-03 -1.139684394001960754e-02 -1.369723770767450333e-02 6.158044934272766113e-02
9.773110151290893555e-01 9.898601472377777100e-02 -2.300048023462295532e-01 1.748576611280441284e-01 -3.676669299602508545e-02
-2.173644781112670898e+00 9.208953939378261566e-03 -1.635931618511676788e-02 -1.324022468179464340e-02 6.587812304496765137e-02
-2.188971757888793945e+00 2.209690399467945099e-02 -1.727239973843097687e-02 -4.646934568881988525e-03 7.204750925302505493e-02
-8.156247735023498535e-01 -1.494874507188796997e-01 1.064412742853164673e-01 -3.872103244066238403e-02 2.421216480433940887e-02
-9.051206111907958984e-01 -1.999075114727020264e-01 -7.279820274561643600e-04 3.807276487350463867e-03 8.654299378395080566e-02
3.126614987850189209e-01 -4.979446157813072205e-02 2.337342500686645508e-01 8.713764697313308716e-02 4.603614658117294312e-02
-8.113313317298889160e-01 -1.677846610546112061e-01 -3.615472093224525452e-02 1.395541243255138397e-02 8.869220316410064697e-02
-8.404667377471923828e-01 -1.076408699154853821e-01 -7.337416708469390869e-02 -4.544973373413085938e-02 7.795123755931854248e-02
3.262613713741302490e-01 1.944351010024547577e-02 -4.870194476097822189e-03 -4.035700112581253052e-02 2.859368221834301949e-03
-7.528496980667114258e-01 2.189061641693115234e-01 2.144051343202590942e-02 3.019814379513263702e-02 -3.974558413028717041e-02
5.003232955932617188e-01 -3.956042602658271790e-02 2.583486139774322510e-01 1.146226897835731506e-01 5.986531451344490051e-02
-3.094594478607177734e-01 -2.444082200527191162e-01 -7.109677046537399292e-02 -4.223315790295600891e-02 9.634649753570556641e-02
-1.321607470512390137e+00 -7.840296626091003418e-02 -4.229277838021516800e-03 -1.819628849625587463e-02 8.186109364032745361e-02
9.006916880607604980e-01 1.110195890069007874e-01 -2.682692408561706543e-01 1.660616099834442139e-01 -5.085854232311248779e-02
-5.710527300834655762e-01 1.739435344934463501e-01 -3.622243180871009827e-03 -1.345214154571294785e-02 -3.210048004984855652e-02
-2.140842914581298828e+00 -1.990264095366001129e-02 -2.938923239707946777e-02 6.960131577216088772e-04 3.681206330657005310e-02
-2.196243524551391602e+00 -3.855033218860626221e-02 -1.353456825017929077e-02 -2.096397429704666138e-02 5.256479606032371521e-02
-2.196028470993041992e+00 1.369785517454147339e-02 3.802232211455702782e-03 -2.553503401577472687e-02 6.087677553296089172e-02
-2.199011325836181641e+00 2.212819270789623260e-02 4.614231875166296959e-04 -1.929557137191295624e-02 5.945824459195137024e-02
4.760697484016418457e-01 1.062210351228713989e-01 -1.532584428787231445e-01 1.385263204574584961e-01 -3.028928674757480621e-02
-2.164264440536499023e+00 7.276036776602268219e-03 1.225416921079158783e-02 -3.587485477328300476e-02 6.157015636563301086e-02
9.270402789115905762e-01 3.248331369832158089e-03 6.563738454133272171e-03 -1.803973913192749023e-01 3.716929256916046143e-02
-2.204060077667236328e+00 5.995771382004022598e-03 -3.876200411468744278e-03 -1.747119985520839691e-02 6.470286846160888672e-02
-2.205429315567016602e+00 2.258523181080818176e-02 -3.122030990198254585e-03 -1.738153025507926941e-02 5.984841287136077881e-02
1.986748814582824707e+00 1.615031622350215912e-02 -7.978179305791854858e-02 1.396191492676734924e-02 2.027173154056072235e-02
-1.008524894714355469e+00 -2.497747838497161865e-01 -3.534030914306640625e-02 -1.330824475735425949e-02 1.147508472204208374e-01
5.823546051979064941e-01 -4.654980078339576721e-02 2.315693199634552002e-01 1.045589447021484375e-01 7.157612591981887817e-02
-2.192371845245361328e+00 2.009288035333156586e-02 3.205463988706469536e-03 -2.363085560500621796e-02 5.498078837990760803e-02
-2.200528860092163086e+00 8.080846630036830902e-03 1.198805635794997215e-03 -1.982450671494007111e-02 4.881789535284042358e-02
-2.204977273941040039e+00 1.342274807393550873e-02 1.670036814175546169e-03 -2.570829913020133972e-02 5.881489068269729614e-02
-2.209339857101440430e+00 1.938634668476879597e-03 -1.104494277387857437e-02 -1.267723273485898972e-02 6.421568244695663452e-02
-2.174484968185424805e+00 2.351768873631954193e-02 -2.731133811175823212e-02 -2.205096971010789275e-04 7.648067176342010498e-02
-2.176331520080566406e+00 2.680381201207637787e-02 -2.344631776213645935e-02 1.817342126742005348e-04 7.589796185493469238e-02
-2.190727949142456055e+00 2.154491655528545380e-02 -2.245978079736232758e-02 1.121510984376072884e-03 7.060880213975906372e-02
-2.193567276000976562e+00 1.011973619461059570e-02 -1.425600796937942505e-02 -8.275872096419334412e-03 7.080277055501937866e-02
-2.193508148193359375e+00 1.000603288412094116e-02 -1.730413362383842468e-02 -3.272430272772908211e-03 6.295766681432723999e-02
9.257313609123229980e-01 1.047273073345422745e-02 -2.991840615868568420e-02 -1.674136817455291748e-01 3.807188570499420166e-02
-2.192714452743530273e+00 1.483515556901693344e-02 -1.935935206711292267e-02 -1.819319557398557663e-03 6.378886103630065918e-02
-2.190879821777343750e+00 1.489454694092273712e-02 -1.997843757271766663e-02 -1.894939225167036057e-03 6.386310607194900513e-02
-2.179737091064453125e+00 2.361266128718852997e-02 -1.277992967516183853e-02 -1.139444392174482346e-02 6.013415753841400146e-02
-2.173435211181640625e+00 2.705276384949684143e-02 -1.583010144531726837e-02 -8.078685961663722992e-03 6.062836199998855591e-02
-2.124664783477783203e+00 2.532207965850830078e-02 -2.618140168488025665e-02 -1.294704526662826538e-02 7.543950527906417847e-02
2.123081684112548828e+00 -2.446124516427516937e-02 2.696729637682437897e-02 1.229492481797933578e-02 -7.564159482717514038e-02
-2.161719083786010742e+00 1.164107024669647217e-02 -1.660639420151710510e-02 -1.978495344519615173e-02 6.126467511057853699e-02
-2.177303075790405273e+00 2.339050872251391411e-03 -1.680125109851360321e-02 -5.826273467391729355e-03 6.267276406288146973e-02
-2.201768159866333008e+00 2.204509451985359192e-03 -2.836866071447730064e-03 -2.301044017076492310e-02 5.736043676733970642e-02
1.846871018409729004e+00 5.399374291300773621e-02 -6.875186413526535034e-02 1.513224188238382339e-02 7.273540366441011429e-03
-2.193635940551757812e+00 -3.167009213939309120e-03 -9.915312752127647400e-03 -1.948423311114311218e-02 6.222586706280708313e-02
6.879891157150268555e-01 -4.016404598951339722e-02 2.756332159042358398e-01 1.106347739696502686e-01 8.588492870330810547e-02
1.925245881080627441e+00 4.085114970803260803e-02 -1.313458383083343506e-01 1.920008286833763123e-02 1.538087986409664154e-02
-2.191812992095947266e+00 2.075180597603321075e-02 -5.876117385923862457e-03 -1.724135316908359528e-02 5.993466824293136597e-02
9.972245097160339355e-01 -3.517114557325839996e-03 2.467841282486915588e-02 -1.788008809089660645e-01 3.961192443966865540e-02
-2.150249242782592773e+00 3.485631942749023438e-02 -2.919870615005493164e-02 1.369053032249212265e-02 6.160436198115348816e-02
-1.777539104223251343e-01 5.234775319695472717e-02 -3.707307204604148865e-02 -1.056638509035110474e-01 -1.352792955003678799e-03
-1.923377513885498047e-01 5.717110633850097656e-02 -4.235550388693809509e-02 -1.044286191463470459e-01 1.239949138835072517e-03
2.688464894890785217e-02 1.804668828845024109e-02 -6.254828721284866333e-02 -4.571288079023361206e-02 -5.362192168831825256e-04
1.551544666290283203e+00 6.195255368947982788e-02 -2.851628512144088745e-02 6.514686346054077148e-02 4.176426678895950317e-03
1.886700749397277832e+00 -2.378530800342559814e-02 3.797997906804084778e-02 4.061632603406906128e-02 -6.436868757009506226e-02
2.261234819889068604e-01 3.124958276748657227e-02 -5.710733309388160706e-02 -4.486637562513351440e-02 5.296842660754919052e-03
1.880046725273132324e+00 -2.013687603175640106e-02 4.482359811663627625e-02 4.378964379429817200e-02 -6.948979943990707397e-02
1.432318985462188721e-01 1.723302528262138367e-02 -6.358754634857177734e-02 -3.170344978570938110e-02 1.200532168149948120e-02
7.889784872531890869e-02 3.527358546853065491e-02 -5.279346928000450134e-02 -3.143275529146194458e-02 6.981994491070508957e-03
9.543910622596740723e-02 -2.676208131015300751e-02 -7.011315226554870605e-02 -2.267318964004516602e-02 9.645245037972927094e-03
-2.210504293441772461e+00 2.101063914597034454e-02 -8.505631238222122192e-03 -9.980753995478153229e-03 6.089233234524726868e-02
-2.202525854110717773e+00 2.815471589565277100e-02 -1.611146889626979828e-02 -8.215901325456798077e-04 6.089845672249794006e-02
5.915250778198242188e-01 5.126217380166053772e-02 -7.038626074790954590e-02 -6.242784485220909119e-02 -2.856465987861156464e-02
2.022134542465209961e+00 -2.300356328487396240e-02 4.506566002964973450e-02 2.793182432651519775e-02 -6.094261631369590759e-02
-3.230636194348335266e-02 4.203672055155038834e-03 -7.052931934595108032e-02 -1.849223673343658447e-02 -2.706791041418910027e-03
-2.069258451461791992e+00 4.833920672535896301e-02 -1.112830173224210739e-02 -7.569252513349056244e-03 5.256523191928863525e-02
2.718303725123405457e-02 -4.497211799025535583e-02 -6.782068312168121338e-02 -4.227657243609428406e-02 6.216547451913356781e-03
-8.429687470197677612e-02 1.798786222934722900e-02 -6.406725943088531494e-02 -2.868944965302944183e-02 -3.799482015892863274e-03
-1.931479096412658691e+00 1.731648482382297516e-02 -7.963743060827255249e-03 -4.235314205288887024e-03 5.642628669738769531e-02
-2.075329720973968506e-01 -3.236060962080955505e-02 -5.657042935490608215e-02 -2.228221483528614044e-02 1.388849504292011261e-02
9.544767141342163086e-01 1.047880351543426514e-01 -2.729592621326446533e-01 1.177331134676933289e-01 -3.191511332988739014e-02
-2.156191825866699219e+00 2.630710601806640625e-02 -1.565064303576946259e-02 -1.900804229080677032e-02 6.339344382286071777e-02
-1.495301365852355957e+00 -7.896210253238677979e-02 -1.543784514069557190e-02 -7.298272848129272461e-02 5.817255377769470215e-02
1.927102088928222656e+00 3.604484722018241882e-02 -1.157734543085098267e-01 8.642261847853660583e-03 8.919377811253070831e-03
-2.168906688690185547e+00 3.825580701231956482e-02 -2.942910883575677872e-03 -7.053483743220567703e-03 6.426208466291427612e-02
-2.179241657257080078e+00 3.969851415604352951e-03 3.278621879871934652e-04 -2.932725846767425537e-02 5.202125012874603271e-02
-2.048807382583618164e+00 -4.058403149247169495e-02 9.869702160358428955e-02 -1.632649078965187073e-02 -1.708262250758707523e-03
-2.200038909912109375e+00 2.258383668959140778e-02 -5.390100181102752686e-03 -1.335770543664693832e-02 6.068462133407592773e-02
2.036132574081420898e+00 2.860903367400169373e-02 -8.741646260023117065e-02 1.064050197601318359e-02 9.740696288645267487e-03
-2.202318191528320312e+00 2.680024877190589905e-02 -4.749015439301729202e-03 -1.247339788824319839e-02 6.006362661719322205e-02
-2.198990106582641602e+00 4.597454331815242767e-03 -1.150560681708157063e-03 -2.310091815888881683e-02 6.044996157288551331e-02
-2.172682762145996094e+00 -6.460793782025575638e-03 3.346738405525684357e-03 -2.279668301343917847e-02 5.532255023717880249e-02
8.802978992462158203e-01 2.227497985586524010e-03 5.096931476145982742e-03 -1.777085959911346436e-01 1.992516405880451202e-02
-2.201499700546264648e+00 -3.361643059179186821e-03 4.562917747534811497e-04 -2.007425576448440552e-02 5.543630570173263550e-02
2.678834795951843262e-01 7.474201917648315430e-02 -3.824542090296745300e-02 -3.272439166903495789e-02 3.708050935529172421e-04
1.985815882682800293e+00 -2.745685353875160217e-02 4.156412556767463684e-02 1.665880344808101654e-02 -6.447964906692504883e-02
3.659099340438842773e-01 5.566198751330375671e-02 -1.107090488076210022e-01 5.469085276126861572e-02 -4.399219900369644165e-02
3.675007224082946777e-01 -8.736221492290496826e-02 -3.925518319010734558e-02 -4.100146144628524780e-02 8.735753595829010010e-03
7.489026784896850586e-01 -4.365623742341995239e-02 3.416050672531127930e-01 1.285318136215209961e-01 5.385886505246162415e-02
-2.151503801345825195e+00 1.951656676828861237e-02 -2.370820008218288422e-02 -1.036359090358018875e-02 5.967175215482711792e-02
-2.167669773101806641e+00 2.965361438691616058e-02 -2.371719852089881897e-02 -8.446100167930126190e-03 6.315345317125320435e-02
-2.094059228897094727e+00 3.833964094519615173e-02 -4.343310743570327759e-02 -8.304898627102375031e-03 5.812232568860054016e-02
-8.328314423561096191e-01 1.834594011306762695e-01 6.172740831971168518e-02 -4.343106597661972046e-02 -4.908114299178123474e-02
6.900182962417602539e-01 7.054143585264682770e-03 4.567618016153573990e-03 -4.492871463298797607e-02 2.801195345818996429e-02
5.157102942466735840e-01 3.681084141135215759e-02 -9.994204342365264893e-02 -1.564749702811241150e-02 -2.904281206429004669e-02
-2.200371265411376953e+00 3.262438345700502396e-03 -1.127735432237386703e-02 -1.508294511586427689e-02 6.438738107681274414e-02
-2.158898353576660156e+00 2.330256067216396332e-02 -1.915897801518440247e-02 -2.302951924502849579e-02 6.143903732299804688e-02
-2.183732986450195312e+00 2.601519785821437836e-02 -2.124530076980590820e-02 9.185740724205970764e-03 6.151756644248962402e-02
-2.169204473495483398e+00 1.487509626895189285e-02 -2.721796557307243347e-02 -5.378815345466136932e-03 5.799649283289909363e-02
-2.175813436508178711e+00 7.428064942359924316e-03 -1.217843033373355865e-02 -1.667764782905578613e-02 6.036401167511940002e-02
-6.030549407005310059e-01 1.627497524023056030e-01 -2.838709019124507904e-02 5.856817960739135742e-02 -1.057280693203210831e-02
-2.163944005966186523e+00 2.012676373124122620e-02 -1.944604516029357910e-02 -9.120813570916652679e-03 6.063406541943550110e-02
-2.157784461975097656e+00 3.383410722017288208e-02 -2.795048058032989502e-02 7.649202365428209305e-03 6.060725450515747070e-02
-2.184561967849731445e+00 1.833677291870117188e-02 -6.777079310268163681e-03 -1.427233964204788208e-02 5.646120384335517883e-02
1.882015228271484375e+00 5.528347939252853394e-02 -1.163338646292686462e-01 6.200751662254333496e-02 1.954194717109203339e-02
1.146250247955322266e+00 -2.708446979522705078e-02 -9.114500135183334351e-02 -1.901436001062393188e-01 -2.351278066635131836e-02
-2.204813003540039062e+00 -1.626548171043395996e-02 -6.301191169768571854e-03 -1.767298951745033264e-02 5.796635895967483521e-02
